{"learner":{"attributes":{"scikit_learn":"{\"_estimator_type\": \"regressor\"}"},"feature_names":["pillow_swe","z","daymet_dayl","daymet_prcp","daymet_tmax","daymet_tmin","daymet_mean_temp","daymet_snowfall_index","daymet_daily_degree_day","daymet_degree_days_7d","daymet_accumulated_precip_7d"],"feature_types":["float","float","float","float","float","float","float","float","float","float","float"],"gradient_booster":{"model":{"gbtree_model_param":{"num_parallel_tree":"1","num_trees":"500"},"iteration_indptr":[0,1,2,3,4,5,6,7,8,9,10,11,12,13,14,15,16,17,18,19,20,21,22,23,24,25,26,27,28,29,30,31,32,33,34,35,36,37,38,39,40,41,42,43,44,45,46,47,48,49,50,51,52,53,54,55,56,57,58,59,60,61,62,63,64,65,66,67,68,69,70,71,72,73,74,75,76,77,78,79,80,81,82,83,84,85,86,87,88,89,90,91,92,93,94,95,96,97,98,99,100,101,102,103,104,105,106,107,108,109,110,111,112,113,114,115,116,117,118,119,120,121,122,123,124,125,126,127,128,129,130,131,132,133,134,135,136,137,138,139,140,141,142,143,144,145,146,147,148,149,150,151,152,153,154,155,156,157,158,159,160,161,162,163,164,165,166,167,168,169,170,171,172,173,174,175,176,177,178,179,180,181,182,183,184,185,186,187,188,189,190,191,192,193,194,195,196,197,198,199,200,201,202,203,204,205,206,207,208,209,210,211,212,213,214,215,216,217,218,219,220,221,222,223,224,225,226,227,228,229,230,231,232,233,234,235,236,237,238,239,240,241,242,243,244,245,246,247,248,249,250,251,252,253,254,255,256,257,258,259,260,261,262,263,264,265,266,267,268,269,270,271,272,273,274,275,276,277,278,279,280,281,282,283,284,285,286,287,288,289,290,291,292,293,294,295,296,297,298,299,300,301,302,303,304,305,306,307,308,309,310,311,312,313,314,315,316,317,318,319,320,321,322,323,324,325,326,327,328,329,330,331,332,333,334,335,336,337,338,339,340,341,342,343,344,345,346,347,348,349,350,351,352,353,354,355,356,357,358,359,360,361,362,363,364,365,366,367,368,369,370,371,372,373,374,375,376,377,378,379,380,381,382,383,384,385,386,387,388,389,390,391,392,393,394,395,396,397,398,399,400,401,402,403,404,405,406,407,408,409,410,411,412,413,414,415,416,417,418,419,420,421,422,423,424,425,426,427,428,429,430,431,432,433,434,435,436,437,438,439,440,441,442,443,444,445,446,447,448,449,450,451,452,453,454,455,456,457,458,459,460,461,462,463,464,465,466,467,468,469,470,471,472,473,474,475,476,477,478,479,480,481,482,483,484,485,486,487,488,489,490,491,492,493,494,495,496,497,498,499,500],"tree_info":[0,0,0,0,0,0,0,0,0,0,0,0,0,0,0,0,0,0,0,0,0,0,0,0,0,0,0,0,0,0,0,0,0,0,0,0,0,0,0,0,0,0,0,0,0,0,0,0,0,0,0,0,0,0,0,0,0,0,0,0,0,0,0,0,0,0,0,0,0,0,0,0,0,0,0,0,0,0,0,0,0,0,0,0,0,0,0,0,0,0,0,0,0,0,0,0,0,0,0,0,0,0,0,0,0,0,0,0,0,0,0,0,0,0,0,0,0,0,0,0,0,0,0,0,0,0,0,0,0,0,0,0,0,0,0,0,0,0,0,0,0,0,0,0,0,0,0,0,0,0,0,0,0,0,0,0,0,0,0,0,0,0,0,0,0,0,0,0,0,0,0,0,0,0,0,0,0,0,0,0,0,0,0,0,0,0,0,0,0,0,0,0,0,0,0,0,0,0,0,0,0,0,0,0,0,0,0,0,0,0,0,0,0,0,0,0,0,0,0,0,0,0,0,0,0,0,0,0,0,0,0,0,0,0,0,0,0,0,0,0,0,0,0,0,0,0,0,0,0,0,0,0,0,0,0,0,0,0,0,0,0,0,0,0,0,0,0,0,0,0,0,0,0,0,0,0,0,0,0,0,0,0,0,0,0,0,0,0,0,0,0,0,0,0,0,0,0,0,0,0,0,0,0,0,0,0,0,0,0,0,0,0,0,0,0,0,0,0,0,0,0,0,0,0,0,0,0,0,0,0,0,0,0,0,0,0,0,0,0,0,0,0,0,0,0,0,0,0,0,0,0,0,0,0,0,0,0,0,0,0,0,0,0,0,0,0,0,0,0,0,0,0,0,0,0,0,0,0,0,0,0,0,0,0,0,0,0,0,0,0,0,0,0,0,0,0,0,0,0,0,0,0,0,0,0,0,0,0,0,0,0,0,0,0,0,0,0,0,0,0,0,0,0,0,0,0,0,0,0,0,0,0,0,0,0,0,0,0,0,0,0,0,0,0,0,0,0,0,0,0,0,0,0,0,0,0,0,0,0,0,0,0,0,0,0,0,0,0,0,0,0,0,0,0,0,0,0,0,0,0,0,0,0,0,0,0,0,0,0,0,0,0,0,0,0,0,0,0,0,0],"trees":[{"base_weights":[1.4096123E0,-5.8551514E1,6.7461145E2,-1.2478174E2,1.1881189E2,5.1671063E2,8.828912E2,-1.4975116E2,-6.772608E1,6.5102104E1,2.1134589E2,6.709298E1,8.658876E1,1.19008125E2,1.5890808E2,-1.53286E2,-1.27630714E2,-9.610217E1,-4.7610413E1,2.5050983E1,8.88915E1,1.605015E2,2.481317E2,-7.956078E0,-2.300545E1,-1.9586843E1,-4.343671E1,-9.679687E1,5.4677625E0,-5.9371605E1,-4.0527588E1,9.547254E0,3.600367E1,7.127522E1,1.1601202E2,2.2680569E1,2.0054886E2,3.332583E1,4.0077915E1,3.9249642E0,-9.540226E0,-1.4989922E1,-1.1660683E1,-9.146192E0,8.7614256E-1,-4.8276796E0,-8.140725E0,1.0576743E0,6.879792E0,8.748137E0,4.2131133E0,1.2660211E1,9.001426E0,1.3096597E1,1.9033451E1,1.2535285E1,3.1444984E1],"categories":[],"categories_nodes":[],"categories_segments":[],"categories_sizes":[],"default_left":[0,0,0,0,0,0,0,0,0,0,0,0,0,0,0,0,0,0,0,0,0,0,0,0,0,0,0,0,0,0,0,0,0,0,0,0,0,0,0,0,0,0,0,0,0,0,0,0,0,0,0,0,0,0,0,0,0],"id":0,"left_children":[1,3,5,7,9,11,13,15,17,19,21,-1,-1,-1,-1,23,25,27,29,31,33,35,37,-1,-1,-1,39,41,-1,43,45,47,49,51,53,-1,55,-1,-1,-1,-1,-1,-1,-1,-1,-1,-1,-1,-1,-1,-1,-1,-1,-1,-1,-1,-1],"loss_changes":[2.3444427E8,6.267543E7,1.4707792E7,5.512832E6,7.183648E6,6.38528E5,1.508128E6,1.71708E5,6.676795E5,8.7295375E5,9.14968E5,0E0,0E0,0E0,0E0,2.968E3,8.38E4,5.22385E4,5.3233E4,5.802039E4,2.589445E5,2.4268E4,3.1654E4,0E0,0E0,0E0,2.5822406E4,1.3452E4,0E0,2.773775E4,4.7102562E4,1.2535635E4,3.2324531E4,4.2221625E4,4.756175E4,0E0,3.989E3,0E0,0E0,0E0,0E0,0E0,0E0,0E0,0E0,0E0,0E0,0E0,0E0,0E0,0E0,0E0,0E0,0E0,0E0,0E0,0E0],"parents":[2147483647,0,0,1,1,2,2,3,3,4,4,5,5,6,6,7,7,8,8,9,9,10,10,15,15,16,16,17,17,18,18,19,19,20,20,21,21,22,22,26,26,27,27,29,29,30,30,31,31,32,32,33,33,34,34,36,36],"right_children":[2,4,6,8,10,12,14,16,18,20,22,-1,-1,-1,-1,24,26,28,30,32,34,36,38,-1,-1,-1,40,42,-1,44,46,48,50,52,54,-1,56,-1,-1,-1,-1,-1,-1,-1,-1,-1,-1,-1,-1,-1,-1,-1,-1,-1,-1,-1,-1],"split_conditions":[6.509238E2,1.78435E2,1.1167745E3,3.5795856E1,3.88112E2,8.702431E2,1.4718982E3,2.9845E0,8.2931E1,2.4425275E2,4.7640875E2,6.709298E1,8.658876E1,1.19008125E2,1.5890808E2,-9.213662E0,8.184932E0,9.808518E0,1.13284E2,2.1124333E2,3.2681332E2,9.874615E0,5.044803E2,-7.956078E0,-2.300545E1,-1.9586843E1,2.2948954E1,7.5789696E1,5.4677625E0,1.3648663E1,1.296409E1,4.1975675E0,1.3761039E0,6.2161765E0,2.344E3,2.2680569E1,-2.2521052E0,3.332583E1,4.0077915E1,3.9249642E0,-9.540226E0,-1.4989922E1,-1.1660683E1,-9.146192E0,8.7614256E-1,-4.8276796E0,-8.140725E0,1.0576743E0,6.879792E0,8.748137E0,4.2131133E0,1.2660211E1,9.001426E0,1.3096597E1,1.9033451E1,1.2535285E1,3.1444984E1],"split_indices":[0,0,0,0,0,0,0,0,0,0,0,0,0,0,0,5,5,5,0,0,0,3,0,0,0,0,4,0,0,6,4,5,4,4,1,0,4,0,0,0,0,0,0,0,0,0,0,0,0,0,0,0,0,0,0,0,0],"split_type":[0,0,0,0,0,0,0,0,0,0,0,0,0,0,0,0,0,0,0,0,0,0,0,0,0,0,0,0,0,0,0,0,0,0,0,0,0,0,0,0,0,0,0,0,0,0,0,0,0,0,0,0,0,0,0,0,0],"sum_hessian":[5.804E3,5.331E3,4.73E2,3.882E3,1.449E3,2.73E2,2E2,2.698E3,1.184E3,9.19E2,5.3E2,1.35E2,1.38E2,1.4E2,6E1,2.316E3,3.82E2,4.88E2,6.96E2,3.44E2,5.75E2,2.27E2,3.03E2,3E0,2.313E3,3.68E2,1.4E1,4.86E2,2E0,2.56E2,4.4E2,1.44E2,2E2,3.53E2,2.22E2,1.92E2,3.5E1,1.39E2,1.64E2,3E0,1.1E1,4.1E2,7.6E1,2.5E2,6E0,2.78E2,1.62E2,1.37E2,7E0,4.9E1,1.51E2,1.57E2,1.96E2,6.6E1,1.56E2,4E0,3.1E1],"tree_param":{"num_deleted":"0","num_feature":"11","num_nodes":"57","size_leaf_vector":"1"}},{"base_weights":[9.793107E-1,9.435073E1,-9.2779205E1,1.6310905E1,1.7019853E2,-4.100688E1,-1.1760444E2,6.28389E1,-4.2909725E1,2.4594075E2,8.654777E1,-9.115879E1,2.3670305E1,-1.3088905E2,-9.17523E1,2.4973072E1,1.3726476E2,-1.9041044E1,-6.5696754E1,1.9815236E2,3.4432483E2,-9.314366E0,1.2761579E2,-1.0253091E2,-4.0702625E1,7.538685E1,-2.1064749E1,-1.1069655E2,-2.0009266E1,-9.7573845E1,-3.2456295E1,1.7449665E1,2.5254657E2,9.940031E1,2.7287387E2,-4.185985E1,3.3952652E1,-6.82765E1,2.8604637E1,1.4117938E2,2.5214365E2,4.5359E2,2.3647865E2,1.1853203E1,-9.117858E1,1.4460262E2,4.84922E0,-8.169064E1,-1.1314478E2,4.8887375E1,-1.1159271E2,5.0872658E1,1.3941072E2,-1.6621603E0,-6.5227646E1,-1.9052322E1,-6.1107235E1,-7.914892E1,-1.1154631E2,-5.1821903E1,3.0845413E1,9.397968E0,-6.339418E-1,1.9149346E0,3.9881187E1,1.0672454E1,2.0036531E1,4.841582E1,4.157787E0,-7.371558E0,4.7174034E0,9.3346195E0,-6.876256E0,-1.0347585E1,7.6423235E0,-6.5811524E0,1.7825005E1,4.5876053E1,1.485853E1,1.3072402E1,4.0269623E1,7.137259E1,1.0299978E1,1.4206893E1,4.1841988E1,1.1645491E1,-2.728335E0,6.4216676E0,-1.4446364E1,2.402437E1,-3.116933E0,-6.5190787E0,3.2019985E1,-1.0209814E1,-1.670157E1,-4.62887E0,-1.7252712E1,-5.0558767E0,3.3621124E1,1.170948E0,-1.7103224E1,-6.986718E-1,1.0799837E1,3.3285804E0,3.6940075E1,3.038479E0,-1.2326582E1,-1.1873182E1,8.83316E0,-1.0328063E1,1.2774995E1,-9.848574E0,-1.5221728E1,-1.572249E1,-1.9286575E1,9.6525244E-2,-1.668451E1,2.410411E1,-1.5861999E1],"categories":[],"categories_nodes":[],"categories_segments":[],"categories_sizes":[],"default_left":[0,0,0,0,0,0,0,0,0,0,0,0,0,0,0,0,0,0,0,0,0,0,0,0,0,0,0,0,0,0,0,0,0,0,0,0,0,0,0,0,0,0,0,0,0,0,0,0,0,0,0,0,0,0,0,0,0,0,0,0,0,0,0,0,0,0,0,0,0,0,0,0,0,0,0,0,0,0,0,0,0,0,0,0,0,0,0,0,0,0,0,0,0,0,0,0,0,0,0,0,0,0,0,0,0,0,0,0,0,0,0,0,0,0,0,0,0,0,0],"id":1,"left_children":[1,3,5,7,9,11,13,15,17,19,21,23,25,27,29,31,33,35,37,39,41,43,45,47,49,51,53,55,-1,57,59,61,63,65,67,69,71,73,75,77,79,81,83,85,87,89,91,93,95,97,99,101,103,105,107,-1,109,111,113,115,117,-1,-1,-1,-1,-1,-1,-1,-1,-1,-1,-1,-1,-1,-1,-1,-1,-1,-1,-1,-1,-1,-1,-1,-1,-1,-1,-1,-1,-1,-1,-1,-1,-1,-1,-1,-1,-1,-1,-1,-1,-1,-1,-1,-1,-1,-1,-1,-1,-1,-1,-1,-1,-1,-1,-1,-1,-1,-1],"loss_changes":[5.082785E7,1.7213062E7,3.713594E6,3.9621925E6,9.302548E6,3.059934E6,6.47862E5,2.261631E6,3.4169962E5,3.497348E6,2.7740515E6,2.96194E5,9.587234E5,3.54E4,2.251615E5,9.08617E5,1.3369015E6,3.801373E5,8.2523125E4,1.543334E6,2.730738E6,3.7134138E5,1.026558E6,7.6876E4,6.52429E5,2.86968E5,1.9079928E5,1.08912625E5,0E0,1.391915E5,8.044811E4,5.110782E5,4.7261375E4,1.883715E5,6.912595E5,1.2004922E5,2.2008331E5,3.3614375E4,7.58993E4,1.742346E6,6.71826E5,9.77918E5,7.29453E5,3.4082616E5,3.8546875E4,1.121043E6,6.435762E5,4.6480062E4,3.607E4,6.811385E5,1.8416062E4,1.673255E5,6.401399E5,2.8046225E5,1.26883625E5,0E0,5.93025E4,6.7847875E4,1.201E4,1.5298052E5,3.1782134E5,0E0,0E0,0E0,0E0,0E0,0E0,0E0,0E0,0E0,0E0,0E0,0E0,0E0,0E0,0E0,0E0,0E0,0E0,0E0,0E0,0E0,0E0,0E0,0E0,0E0,0E0,0E0,0E0,0E0,0E0,0E0,0E0,0E0,0E0,0E0,0E0,0E0,0E0,0E0,0E0,0E0,0E0,0E0,0E0,0E0,0E0,0E0,0E0,0E0,0E0,0E0,0E0,0E0,0E0,0E0,0E0,0E0,0E0],"parents":[2147483647,0,0,1,1,2,2,3,3,4,4,5,5,6,6,7,7,8,8,9,9,10,10,11,11,12,12,13,13,14,14,15,15,16,16,17,17,18,18,19,19,20,20,21,21,22,22,23,23,24,24,25,25,26,26,27,27,29,29,30,30,31,31,32,32,33,33,34,34,35,35,36,36,37,37,38,38,39,39,40,40,41,41,42,42,43,43,44,44,45,45,46,46,47,47,48,48,49,49,50,50,51,51,52,52,53,53,54,54,56,56,57,57,58,58,59,59,60,60],"right_children":[2,4,6,8,10,12,14,16,18,20,22,24,26,28,30,32,34,36,38,40,42,44,46,48,50,52,54,56,-1,58,60,62,64,66,68,70,72,74,76,78,80,82,84,86,88,90,92,94,96,98,100,102,104,106,108,-1,110,112,114,116,118,-1,-1,-1,-1,-1,-1,-1,-1,-1,-1,-1,-1,-1,-1,-1,-1,-1,-1,-1,-1,-1,-1,-1,-1,-1,-1,-1,-1,-1,-1,-1,-1,-1,-1,-1,-1,-1,-1,-1,-1,-1,-1,-1,-1,-1,-1,-1,-1,-1,-1,-1,-1,-1,-1,-1,-1,-1,-1],"split_conditions":[4.3566357E1,3.7575098E4,7.175034E1,1.5081608E1,2.038222E1,4.523262E4,5.1331918E4,3.5047945E4,2.527986E1,3.5414043E1,4.1650914E4,4.2165418E4,5.0530203E4,8.110876E1,5.2635535E4,1.794669E2,8.731712E1,3.56226E4,3.408885E1,4.1766855E4,4.184495E4,-3.4500003E-2,5.0947184E4,5.0282467E1,5.5941196E1,5.526818E0,5.2403117E4,4.738601E4,-2.0009266E1,1.521036E1,3.0090907E-1,9.950974E-1,-3.0621052E0,3.613308E4,5.3289475E0,6.506303E1,2.3057392E1,1.8997639E1,6.7512E1,1.6894096E0,3.8402256E-1,-1.3458228E0,1.6894096E0,9.69697E-3,3.7643934E4,2.1065218E0,5.176325E4,1.3213793E0,3.4613805E4,5.2082005E1,4.342048E0,4.7586203E4,4.966689E4,7.6429033E0,2.1226002E1,-1.9052322E1,5.108115E4,9.687433E1,6.264845E-1,2.1937187E1,7.799295E-1,9.397968E0,-6.339418E-1,1.9149346E0,3.9881187E1,1.0672454E1,2.0036531E1,4.841582E1,4.157787E0,-7.371558E0,4.7174034E0,9.3346195E0,-6.876256E0,-1.0347585E1,7.6423235E0,-6.5811524E0,1.7825005E1,4.5876053E1,1.485853E1,1.3072402E1,4.0269623E1,7.137259E1,1.0299978E1,1.4206893E1,4.1841988E1,1.1645491E1,-2.728335E0,6.4216676E0,-1.4446364E1,2.402437E1,-3.116933E0,-6.5190787E0,3.2019985E1,-1.0209814E1,-1.670157E1,-4.62887E0,-1.7252712E1,-5.0558767E0,3.3621124E1,1.170948E0,-1.7103224E1,-6.986718E-1,1.0799837E1,3.3285804E0,3.6940075E1,3.038479E0,-1.2326582E1,-1.1873182E1,8.83316E0,-1.0328063E1,1.2774995E1,-9.848574E0,-1.5221728E1,-1.572249E1,-1.9286575E1,9.6525244E-2,-1.668451E1,2.410411E1,-1.5861999E1],"split_indices":[9,2,9,9,9,2,2,2,9,10,2,2,2,9,2,10,10,2,7,2,2,5,2,9,9,10,2,2,0,6,10,9,4,2,4,10,9,4,10,9,10,5,9,10,2,5,2,5,2,9,4,2,2,10,4,0,2,9,10,4,10,0,0,0,0,0,0,0,0,0,0,0,0,0,0,0,0,0,0,0,0,0,0,0,0,0,0,0,0,0,0,0,0,0,0,0,0,0,0,0,0,0,0,0,0,0,0,0,0,0,0,0,0,0,0,0,0,0,0],"split_type":[0,0,0,0,0,0,0,0,0,0,0,0,0,0,0,0,0,0,0,0,0,0,0,0,0,0,0,0,0,0,0,0,0,0,0,0,0,0,0,0,0,0,0,0,0,0,0,0,0,0,0,0,0,0,0,0,0,0,0,0,0,0,0,0,0,0,0,0,0,0,0,0,0,0,0,0,0,0,0,0,0,0,0,0,0,0,0,0,0,0,0,0,0,0,0,0,0,0,0,0,0,0,0,0,0,0,0,0,0,0,0,0,0,0,0,0,0,0,0],"sum_hessian":[5.802E3,2.907E3,2.895E3,1.434E3,1.473E3,9.4E2,1.955E3,8.03E2,6.31E2,7.71E2,7.02E2,5.29E2,4.11E2,1.286E3,6.69E2,5.34E2,2.69E2,3.1E2,3.21E2,5.23E2,2.48E2,2.11E2,4.91E2,4.3E2,9.9E1,1.9E2,2.21E2,1.52E2,1.134E3,6.08E2,6.1E1,5.19E2,1.5E1,2.13E2,5.6E1,2.17E2,9.3E1,3.13E2,8E0,2.58E2,2.65E2,1.2E2,1.28E2,1.69E2,4.2E1,4.31E2,6E1,1.51E2,2.79E2,4.4E1,5.5E1,1.4E2,5E1,1.55E2,6.6E1,1.12E2,4E1,2.68E2,3.4E2,4.7E1,1.4E1,1.67E2,3.52E2,1E0,1.4E1,1.2E2,9.3E1,4.6E1,1E1,1.98E2,1.9E1,6.9E1,2.4E1,3.12E2,1E0,5E0,3E0,5E1,2.08E2,2.5E1,2.4E2,1.13E2,7E0,3.1E1,9.7E1,5.2E1,1.17E2,1E0,4.1E1,3.94E2,3.7E1,5E1,1E1,1.08E2,4.3E1,7E0,2.72E2,3.1E1,1.3E1,1E0,5.4E1,3.9E1,1.01E2,2.5E1,2.5E1,1.23E2,3.2E1,6E1,6E0,3.9E1,1E0,1.72E2,9.6E1,2.54E2,8.6E1,2.6E1,2.1E1,7E0,7E0],"tree_param":{"num_deleted":"0","num_feature":"11","num_nodes":"119","size_leaf_vector":"1"}},{"base_weights":[5.317955E-1,-4.631159E1,5.3958167E2,-9.623699E1,8.579052E1,3.9646204E2,7.050739E2,-1.10049385E2,-4.7138615E1,4.0868313E1,1.6010707E2,4.8568855E1,6.502485E1,9.350095E1,1.3041788E2,-1.7058643E1,-8.589216E1,-5.144467E1,2.3165092E1,2.142191E1,7.37194E1,1.2039538E2,1.9428758E2,-9.036978E1,1.5712544E1,-6.3090218E1,-4.067401E1,4.0209698E1,5.9743786E-1,4.7043407E1,8.662847E0,1.21034805E2,5.4537075E1,1.1096527E2,2.5517519E1,2.1132811E2,1.6840991E2,-1.2379013E1,-1.4394858E1,5.202732E0,-1.2299298E0,-1.0824634E1,-8.4351845E0,-3.5625267E0,-7.6102586E0,1.7610279E0,7.769544E0,-2.7158558E0,7.700291E0,4.5369277E0,1.32106695E1,3.924885E-1,1.3023845E1,1.0784616E1,2.1131325E1,6.657857E0,1.7323807E1,1.8818527E1,1.2287028E1,2.6418324E1,3.454107E1,2.206795E1,3.452634E1],"categories":[],"categories_nodes":[],"categories_segments":[],"categories_sizes":[],"default_left":[0,0,0,0,0,0,0,0,0,0,0,0,0,0,0,0,0,0,0,0,0,0,0,0,0,0,0,0,0,0,0,0,0,0,0,0,0,0,0,0,0,0,0,0,0,0,0,0,0,0,0,0,0,0,0,0,0,0,0,0,0,0,0],"id":2,"left_children":[1,3,5,7,9,11,13,15,17,19,21,-1,-1,-1,-1,-1,23,25,27,29,31,33,35,37,39,41,43,45,47,49,51,53,55,57,-1,59,61,-1,-1,-1,-1,-1,-1,-1,-1,-1,-1,-1,-1,-1,-1,-1,-1,-1,-1,-1,-1,-1,-1,-1,-1,-1,-1],"loss_changes":[1.474906E8,3.54594E7,1.0500816E7,2.634992E6,4.910946E6,4.0484E5,1.789736E6,2.50412E5,2.62761E5,5.857529E5,7.06241E5,0E0,0E0,0E0,0E0,0E0,1.8944275E5,9.6488E4,1.9528645E4,1.8938866E5,2.970285E5,8.4811E4,5.8527E4,1.2305E3,9.214975E3,1.576775E4,7.02215E4,8.286871E3,2.4667123E4,1.2756034E5,1.8423977E5,7.409725E4,1.4242544E5,7.438675E4,0E0,3.18715E4,9.8902E4,0E0,0E0,0E0,0E0,0E0,0E0,0E0,0E0,0E0,0E0,0E0,0E0,0E0,0E0,0E0,0E0,0E0,0E0,0E0,0E0,0E0,0E0,0E0,0E0,0E0,0E0],"parents":[2147483647,0,0,1,1,2,2,3,3,4,4,5,5,6,6,7,7,8,8,9,9,10,10,16,16,17,17,18,18,19,19,20,20,21,21,22,22,23,23,24,24,25,25,26,26,27,27,28,28,29,29,30,30,31,31,32,32,33,33,35,35,36,36],"right_children":[2,4,6,8,10,12,14,16,18,20,22,-1,-1,-1,-1,-1,24,26,28,30,32,34,36,38,40,42,44,46,48,50,52,54,56,58,-1,60,62,-1,-1,-1,-1,-1,-1,-1,-1,-1,-1,-1,-1,-1,-1,-1,-1,-1,-1,-1,-1,-1,-1,-1,-1,-1,-1],"split_conditions":[6.509238E2,1.7522092E2,1.0675938E3,6.828693E1,3.88112E2,7.968488E2,1.4718982E3,2.3661077E1,5.2252383E4,2.9558344E2,4.8146677E2,4.8568855E1,6.502485E1,9.350095E1,1.3041788E2,-1.7058643E1,5.2112215E4,1.096264E2,1.3707533E2,3.5047945E4,3.5976566E4,4.8622656E4,4.143071E4,7.012462E-1,2.799E3,8.2931E1,3.5047945E4,2.461E3,1.5246927E2,2.4425275E2,5.1216367E4,3.2681332E2,4.950283E4,4.2165418E4,2.5517519E1,4.94284E2,4.7754125E4,-1.2379013E1,-1.4394858E1,5.202732E0,-1.2299298E0,-1.0824634E1,-8.4351845E0,-3.5625267E0,-7.6102586E0,1.7610279E0,7.769544E0,-2.7158558E0,7.700291E0,4.5369277E0,1.32106695E1,3.924885E-1,1.3023845E1,1.0784616E1,2.1131325E1,6.657857E0,1.7323807E1,1.8818527E1,1.2287028E1,2.6418324E1,3.454107E1,2.206795E1,3.452634E1],"split_indices":[0,0,0,0,0,0,0,0,2,0,0,0,0,0,0,0,2,0,0,2,2,2,2,10,1,0,2,1,0,0,2,0,2,2,0,0,2,0,0,0,0,0,0,0,0,0,0,0,0,0,0,0,0,0,0,0,0,0,0,0,0,0,0],"split_type":[0,0,0,0,0,0,0,0,0,0,0,0,0,0,0,0,0,0,0,0,0,0,0,0,0,0,0,0,0,0,0,0,0,0,0,0,0,0,0,0,0,0,0,0,0,0,0,0,0,0,0,0,0,0,0,0,0,0,0,0,0,0,0],"sum_hessian":[5.837E3,5.372E3,4.65E2,3.899E3,1.473E3,2.53E2,2.12E2,3.041E3,8.58E2,9.2E2,5.53E2,9.2E1,1.61E2,1.48E2,6.4E1,2.633E3,4.08E2,8.09E2,4.9E1,5.8E2,3.4E2,2.6E2,2.93E2,3.91E2,1.7E1,3.84E2,4.25E2,2.7E1,2.2E1,1.91E2,3.89E2,9.5E1,2.45E2,2.24E2,3.6E1,1.68E2,1.25E2,1.76E2,2.15E2,9E0,8E0,1.57E2,2.27E2,1.61E2,2.64E2,9E0,1.8E1,1.7E1,5E0,1.38E2,5.3E1,3.63E2,2.6E1,3E1,6.5E1,2.13E2,3.2E1,1.45E2,7.9E1,6.6E1,1.02E2,9.8E1,2.7E1],"tree_param":{"num_deleted":"0","num_feature":"11","num_nodes":"63","size_leaf_vector":"1"}},{"base_weights":[-7.5333107E-1,-3.987724E1,4.621997E2,-8.0211586E1,7.9935455E1,3.5908856E2,6.407739E2,-9.28992E1,-3.3586823E1,3.2074013E1,1.2693196E2,2.9808014E2,6.199033E1,8.517996E1,1.1053957E2,-9.724487E1,-7.383232E1,-3.793472E1,3.0561708E1,4.7309826E1,1.5567336E1,9.4516266E1,1.6542691E2,3.2681602E1,4.728071E1,-1.094964E1,-9.768688E1,-7.725525E1,1.8117548E1,-4.5944214E1,-2.2158693E1,5.3360897E1,3.915311E0,3.049144E1,5.8226925E1,6.2548103E0,8.2046974E1,8.783367E1,2.1935005E1,1.789605E2,1.4100772E2,-1.6373213E1,-1.4449942E1,-1.1730969E1,-5.127618E0,1.7123245E-1,4.319428E0,-5.2954545E0,-7.6618705E0,-4.575679E-1,-6.8006263E0,4.8987513E0,1.2463661E1,-2.177994E0,3.284281E0,5.443859E0,-1.624455E0,1.1558929E1,5.5735435E0,-2.7706075E0,3.8808913E0,8.540437E0,1.8804552E1,1.7784307E1,1.0302397E1,1.4521555E1,2.743167E1,1.7919712E1,3.0050207E1],"categories":[],"categories_nodes":[],"categories_segments":[],"categories_sizes":[],"default_left":[0,0,0,0,0,0,0,0,0,0,0,0,0,0,0,0,0,0,0,0,0,0,0,0,0,0,0,0,0,0,0,0,0,0,0,0,0,0,0,0,0,0,0,0,0,0,0,0,0,0,0,0,0,0,0,0,0,0,0,0,0,0,0,0,0,0,0,0,0],"id":3,"left_children":[1,3,5,7,9,11,13,15,17,19,21,23,-1,-1,-1,25,27,29,31,33,35,37,39,-1,-1,-1,41,43,45,47,49,51,53,55,57,59,61,63,-1,65,67,-1,-1,-1,-1,-1,-1,-1,-1,-1,-1,-1,-1,-1,-1,-1,-1,-1,-1,-1,-1,-1,-1,-1,-1,-1,-1,-1,-1],"loss_changes":[1.057593E8,2.6031362E7,7.916728E6,2.377018E6,3.044025E6,7.21412E5,3.11464E5,2.47798E5,2.4358431E5,1.6822169E5,8.21993E5,6.1264E4,0E0,0E0,0E0,1.3134E4,1.9044225E5,1.00372E5,3.354579E4,6.0623188E4,2.0132884E5,1.040245E5,5.1659E4,0E0,0E0,0E0,1.789E4,1.8098E4,4.07377E3,2.5595125E4,1.2236008E5,1.2921742E4,9.924209E3,3.4849203E4,7.748769E4,1.4114561E5,2.9050781E4,1.8243275E5,0E0,2.6098E4,1.0518425E5,0E0,0E0,0E0,0E0,0E0,0E0,0E0,0E0,0E0,0E0,0E0,0E0,0E0,0E0,0E0,0E0,0E0,0E0,0E0,0E0,0E0,0E0,0E0,0E0,0E0,0E0,0E0,0E0],"parents":[2147483647,0,0,1,1,2,2,3,3,4,4,5,5,6,6,7,7,8,8,9,9,10,10,11,11,15,15,16,16,17,17,18,18,19,19,20,20,21,21,22,22,26,26,27,27,28,28,29,29,30,30,31,31,32,32,33,33,34,34,35,35,36,36,37,37,39,39,40,40],"right_children":[2,4,6,8,10,12,14,16,18,20,22,24,-1,-1,-1,26,28,30,32,34,36,38,40,-1,-1,-1,42,44,46,48,50,52,54,56,58,60,62,64,-1,66,68,-1,-1,-1,-1,-1,-1,-1,-1,-1,-1,-1,-1,-1,-1,-1,-1,-1,-1,-1,-1,-1,-1,-1,-1,-1,-1,-1,-1],"split_conditions":[6.509238E2,2.0185185E2,1.232408E3,7.5789696E1,3.5589633E2,8.8265E2,1.4718982E3,1.609725E1,5.2252383E4,3.9778113E4,4.7640875E2,7.0887494E2,6.199033E1,8.517996E1,1.1053957E2,3.5689914E4,5.215504E4,1.4780846E2,1.03471985E2,2.4166286E2,5.037949E4,4.9252156E4,4.2165418E4,3.2681602E1,4.728071E1,-1.094964E1,4.3970848E1,5.176325E4,3.5795856E1,9.69697E-3,4.0996234E4,1.490472E2,1.1241078E2,9.169201E1,3.5098918E4,2.6913113E2,5.2488617E4,3.7760703E4,2.1935005E1,3.426111E4,4.795525E4,-1.6373213E1,-1.4449942E1,-1.1730969E1,-5.127618E0,1.7123245E-1,4.319428E0,-5.2954545E0,-7.6618705E0,-4.575679E-1,-6.8006263E0,4.8987513E0,1.2463661E1,-2.177994E0,3.284281E0,5.443859E0,-1.624455E0,1.1558929E1,5.5735435E0,-2.7706075E0,3.8808913E0,8.540437E0,1.8804552E1,1.7784307E1,1.0302397E1,1.4521555E1,2.743167E1,1.7919712E1,3.0050207E1],"split_indices":[0,0,0,0,0,0,0,0,2,2,0,0,0,0,0,2,2,0,9,0,2,2,2,0,0,0,9,2,0,10,2,0,9,10,2,0,2,2,0,2,2,0,0,0,0,0,0,0,0,0,0,0,0,0,0,0,0,0,0,0,0,0,0,0,0,0,0,0,0],"split_type":[0,0,0,0,0,0,0,0,0,0,0,0,0,0,0,0,0,0,0,0,0,0,0,0,0,0,0,0,0,0,0,0,0,0,0,0,0,0,0,0,0,0,0,0,0,0,0,0,0,0,0,0,0,0,0,0,0,0,0,0,0,0,0,0,0,0,0,0,0],"sum_hessian":[5.835E3,5.382E3,4.53E2,4.027E3,1.355E3,2.91E2,1.62E2,3.164E3,8.63E2,6.73E2,6.82E2,1.43E2,1.48E2,1E2,6.2E1,2.57E3,5.94E2,8.09E2,5.4E1,3.48E2,3.25E2,3.74E2,3.08E2,3E1,1.13E2,5.2E1,2.518E3,5.73E2,2.1E1,5.34E2,2.75E2,2.8E1,2.6E1,1.4E2,2.08E2,2.87E2,3.8E1,3.36E2,3.8E1,1.9E2,1.18E2,2.49E2,2.269E3,5.59E2,1.4E1,9E0,1.2E1,1.79E2,3.55E2,1.52E2,1.23E2,1.9E1,9E0,1.3E1,1.3E1,1.23E2,1.7E1,1.07E2,1.01E2,1.27E2,1.6E2,2.7E1,1.1E1,1.25E2,2.11E2,1.1E1,1.79E2,9.1E1,2.7E1],"tree_param":{"num_deleted":"0","num_feature":"11","num_nodes":"69","size_leaf_vector":"1"}},{"base_weights":[1.6189693E0,5.9487537E1,-5.6568214E1,9.610481E1,2.5970865E1,-1.2974333E1,-6.962852E1,8.2902855E1,1.3158032E2,4.4640545E1,1.1316235E1,-7.9134645E0,-5.6402016E1,-5.6054832E1,-7.551888E1,3.986835E1,8.967563E1,1.2147831E2,2.2021167E2,2.9180532E1,8.2506454E1,1.8411064E1,-2.9970598E1,-4.5228416E1,7.276923E-1,-6.2839474E1,5.2220776E1,-4.458473E1,-6.0655643E1,-7.1912155E1,-1.2161409E1,7.947094E1,2.7010471E1,9.252925E1,5.1530204E0,2.1147853E2,1.1335264E2,6.799681E1,2.5880902E2,1.7105003E1,5.8341568E1,7.3072624E1,2.4137436E2,-1.6042673E1,2.6346369E1,-3.507167E1,5.4550774E1,-4.962747E1,-3.3392463E0,2.1473148E1,-1.4381213E1,-6.9576584E1,-3.2605366E1,-5.406905E0,1.3884074E1,-2.5769186E0,-5.3248158E1,-3.4286316E1,-6.4946175E1,-1.1136672E1,-6.58767E1,1.6307074E1,-1.8532115E0,3.2037818E0,1.4147156E1,2.3251183E1,1.33743E1,-7.756903E0,4.4208946E0,4.2855446E1,5.321821E0,1.2348512E1,2.122197E1,-3.6602384E-1,2.6268353E1,4.15101E1,1.896298E0,6.0522866E0,-9.2942643E-1,1.5809679E1,1.8377408E0,6.942121E0,1.4828761E1,3.9093803E1,3.3557818E0,-3.878303E0,1.244485E1,7.2243323E0,1.6772753E0,-6.0698857E0,-8.2249844E-1,-4.820702E0,2.3633785E1,-5.04277E0,-8.806319E0,-5.2627916E0,6.7839327E0,1.8705307E0,9.60251E0,-2.6343164E0,1.5122712E1,-1.0529806E1,-1.8113045E0,6.1087143E-1,-7.516271E0,-3.1875067E0,2.4277708E1,-6.947783E0,-1.0461261E1,-6.83351E0,1.1216396E0,-9.912804E0,-4.576402E0,-8.9063835E0,-1.0622976E1],"categories":[],"categories_nodes":[],"categories_segments":[],"categories_sizes":[],"default_left":[0,0,0,0,0,0,0,0,0,0,0,0,0,0,0,0,0,0,0,0,0,0,0,0,0,0,0,0,0,0,0,0,0,0,0,0,0,0,0,0,0,0,0,0,0,0,0,0,0,0,0,0,0,0,0,0,0,0,0,0,0,0,0,0,0,0,0,0,0,0,0,0,0,0,0,0,0,0,0,0,0,0,0,0,0,0,0,0,0,0,0,0,0,0,0,0,0,0,0,0,0,0,0,0,0,0,0,0,0,0,0,0,0,0,0],"id":4,"left_children":[1,3,5,7,9,11,13,15,17,19,21,23,25,27,29,31,33,35,37,39,41,43,45,47,49,51,53,55,57,59,-1,61,63,65,67,69,71,73,75,77,79,81,83,85,87,89,91,93,95,97,99,101,103,-1,-1,105,107,109,111,-1,113,-1,-1,-1,-1,-1,-1,-1,-1,-1,-1,-1,-1,-1,-1,-1,-1,-1,-1,-1,-1,-1,-1,-1,-1,-1,-1,-1,-1,-1,-1,-1,-1,-1,-1,-1,-1,-1,-1,-1,-1,-1,-1,-1,-1,-1,-1,-1,-1,-1,-1,-1,-1,-1,-1],"loss_changes":[1.9671232E7,3.589616E6,1.656626E6,6.33185E5,4.180848E5,1.4717594E5,1.70579E5,2.914695E5,2.8281E5,3.8905238E5,2.5329878E5,1.9551162E5,5.552153E4,3.06875E4,1.9393E4,6.841678E4,2.121655E5,2.018405E5,1.7598E5,1.6730553E5,2.5516388E5,2.0207869E5,5.856289E4,2.0622656E4,1.5546464E5,9.007906E3,2.4532684E4,7.391181E4,5.0206375E4,3.6195E3,0E0,9.408106E4,3.8079516E4,1.519905E5,4.5897484E4,3.1905662E5,2.54021E5,7.648331E4,1.16264875E5,1.8630384E5,3.0093494E5,1.19202125E5,3.021575E4,1.3927675E5,1.9702894E5,1.8822672E4,8.168961E4,1.0934719E4,2.3206295E4,7.837758E4,1.0862531E5,1.1834375E2,1.0725785E4,0E0,0E0,1.2034254E5,1.27389375E4,3.4609555E4,1.2112E4,0E0,6.5025E2,0E0,0E0,0E0,0E0,0E0,0E0,0E0,0E0,0E0,0E0,0E0,0E0,0E0,0E0,0E0,0E0,0E0,0E0,0E0,0E0,0E0,0E0,0E0,0E0,0E0,0E0,0E0,0E0,0E0,0E0,0E0,0E0,0E0,0E0,0E0,0E0,0E0,0E0,0E0,0E0,0E0,0E0,0E0,0E0,0E0,0E0,0E0,0E0,0E0,0E0,0E0,0E0,0E0,0E0],"parents":[2147483647,0,0,1,1,2,2,3,3,4,4,5,5,6,6,7,7,8,8,9,9,10,10,11,11,12,12,13,13,14,14,15,15,16,16,17,17,18,18,19,19,20,20,21,21,22,22,23,23,24,24,25,25,26,26,27,27,28,28,29,29,31,31,32,32,33,33,34,34,35,35,36,36,37,37,38,38,39,39,40,40,41,41,42,42,43,43,44,44,45,45,46,46,47,47,48,48,49,49,50,50,51,51,52,52,55,55,56,56,57,57,58,58,60,60],"right_children":[2,4,6,8,10,12,14,16,18,20,22,24,26,28,30,32,34,36,38,40,42,44,46,48,50,52,54,56,58,60,-1,62,64,66,68,70,72,74,76,78,80,82,84,86,88,90,92,94,96,98,100,102,104,-1,-1,106,108,110,112,-1,114,-1,-1,-1,-1,-1,-1,-1,-1,-1,-1,-1,-1,-1,-1,-1,-1,-1,-1,-1,-1,-1,-1,-1,-1,-1,-1,-1,-1,-1,-1,-1,-1,-1,-1,-1,-1,-1,-1,-1,-1,-1,-1,-1,-1,-1,-1,-1,-1,-1,-1,-1,-1,-1,-1],"split_conditions":[4.3566357E1,1.4696788E1,6.1873177E1,4.042174E0,2.6126143E1,4.1975675E0,8.7129616E1,2.344E3,1.7082365E0,6.024096E-3,1.392E0,-2.0564284E0,2.2642263E1,6.94659E1,1.1617783E2,1.4897916E0,-1.2084508E0,4.8068748E0,2.332E3,1.2583333E1,1.251E1,2.332E3,4.306284E1,5.8605714E0,6.66087E-1,5.9263334E0,2.131E3,1.1591071E1,2.322E3,2.995E3,-1.2161409E1,-7.4523997E0,6.2970157E0,-1.6608824E1,9.044601E0,-8.302779E-1,1.4281304E1,1.3515014E1,5.569286E1,2.7096558E0,6.355553E0,-3.7575386E0,2.995E3,1.771865E1,2.799E3,4.1402637E1,2.956E3,2.496E3,2.995E3,1.7672222E0,4.0978947E0,1.3341857E1,6.366154E0,-5.406905E0,1.3884074E1,6.855194E1,1.1567238E1,8.419644E1,8.452916E0,-1.1136672E1,3.086E3,1.6307074E1,-1.8532115E0,3.2037818E0,1.4147156E1,2.3251183E1,1.33743E1,-7.756903E0,4.4208946E0,4.2855446E1,5.321821E0,1.2348512E1,2.122197E1,-3.6602384E-1,2.6268353E1,4.15101E1,1.896298E0,6.0522866E0,-9.2942643E-1,1.5809679E1,1.8377408E0,6.942121E0,1.4828761E1,3.9093803E1,3.3557818E0,-3.878303E0,1.244485E1,7.2243323E0,1.6772753E0,-6.0698857E0,-8.2249844E-1,-4.820702E0,2.3633785E1,-5.04277E0,-8.806319E0,-5.2627916E0,6.7839327E0,1.8705307E0,9.60251E0,-2.6343164E0,1.5122712E1,-1.0529806E1,-1.8113045E0,6.1087143E-1,-7.516271E0,-3.1875067E0,2.4277708E1,-6.947783E0,-1.0461261E1,-6.83351E0,1.1216396E0,-9.912804E0,-4.576402E0,-8.9063835E0,-1.0622976E1],"split_indices":[9,9,9,3,9,5,9,1,6,3,5,5,4,9,9,9,5,3,1,4,4,1,9,6,5,5,1,4,1,1,0,5,7,5,9,6,3,9,3,6,8,5,1,7,1,9,1,1,1,3,5,6,5,0,0,9,8,9,5,0,1,0,0,0,0,0,0,0,0,0,0,0,0,0,0,0,0,0,0,0,0,0,0,0,0,0,0,0,0,0,0,0,0,0,0,0,0,0,0,0,0,0,0,0,0,0,0,0,0,0,0,0,0,0,0],"split_type":[0,0,0,0,0,0,0,0,0,0,0,0,0,0,0,0,0,0,0,0,0,0,0,0,0,0,0,0,0,0,0,0,0,0,0,0,0,0,0,0,0,0,0,0,0,0,0,0,0,0,0,0,0,0,0,0,0,0,0,0,0,0,0,0,0,0,0,0,0,0,0,0,0,0,0,0,0,0,0,0,0,0,0,0,0,0,0,0,0,0,0,0,0,0,0,0,0,0,0,0,0,0,0,0,0,0,0,0,0,0,0,0,0,0,0],"sum_hessian":[5.838E3,2.927E3,2.911E3,1.397E3,1.53E3,6.72E2,2.239E3,1.023E3,3.74E2,6.71E2,8.59E2,6.04E2,6.8E1,6.84E2,1.555E3,1.41E2,8.82E2,3.4E2,3.4E1,4.79E2,1.92E2,7.34E2,1.25E2,1.12E2,4.92E2,6.5E1,3E0,2.02E2,4.82E2,9.6E2,5.95E2,3.2E1,1.09E2,8.53E2,2.9E1,2.4E1,3.16E2,8E0,2.6E1,3.41E2,1.38E2,1.84E2,8E0,1.37E2,5.97E2,1.19E2,6E0,1.01E2,1.1E1,2.07E2,2.85E2,5.1E1,1.4E1,1E0,2E0,3.5E1,1.67E2,7E1,4.12E2,6.76E2,2.84E2,2.4E1,8E0,1.03E2,6E0,3.9E1,8.14E2,8E0,2.1E1,1.6E1,8E0,1.54E2,1.62E2,6E0,2E0,2.4E1,2E0,1.7E2,1.71E2,6.7E1,7.1E1,9.3E1,9.1E1,7E0,1E0,1.26E2,1.1E1,2.43E2,3.54E2,1E2,1.9E1,4E0,2E0,4E1,6.1E1,7E0,4E0,1.73E2,3.4E1,2.79E2,6E0,5E1,1E0,5E0,9E0,3.3E1,2E0,1.23E2,4.4E1,5.5E1,1.5E1,3.97E2,1.5E1,1.34E2,1.5E2],"tree_param":{"num_deleted":"0","num_feature":"11","num_nodes":"115","size_leaf_vector":"1"}},{"base_weights":[1.1055322E0,-3.2588512E1,3.7943695E2,-6.2826286E1,6.204134E1,2.9443976E2,5.3085266E2,-7.220401E1,-2.8071249E1,3.639915E1,1.26398506E2,2.5520618E2,5.248946E1,7.109727E1,9.816672E1,-7.449404E1,-5.9991276E1,-3.4057434E1,-6.1151423E0,2.0655922E1,6.507731E1,1.0512011E2,2.122551E1,2.6867838E1,3.9770836E1,-8.596802E1,-7.078528E1,-6.2323956E1,1.5615985E1,-2.0589235E1,-4.266235E1,-1.0083431E1,5.948067E1,1.7916979E1,9.494016E1,5.8269913E1,9.3058334E1,1.8674864E1,8.073267E1,-1.5585363E1,-1.2442975E1,-1.0792304E1,-7.1618795E0,-1.1119477E1,-7.6937013E0,5.4831533E0,-9.377617E-1,-3.5809119E0,3.0620167E0,-8.102043E0,-5.436987E0,-1.6604939E0,4.271358E0,1.0266701E1,3.1719005E0,3.936143E-1,3.54894E0,1.661316E1,4.7287145E0,8.102255E0,1.2976263E1,1.0278776E1,1.7825846E1,6.855082E0,1.5349885E1],"categories":[],"categories_nodes":[],"categories_segments":[],"categories_sizes":[],"default_left":[0,0,0,0,0,0,0,0,0,0,0,0,0,0,0,0,0,0,0,0,0,0,0,0,0,0,0,0,0,0,0,0,0,0,0,0,0,0,0,0,0,0,0,0,0,0,0,0,0,0,0,0,0,0,0,0,0,0,0,0,0,0,0,0,0],"id":5,"left_children":[1,3,5,7,9,11,13,15,17,19,21,23,-1,-1,-1,25,27,29,31,33,35,37,-1,-1,-1,39,41,43,45,47,49,51,53,55,57,59,61,-1,63,-1,-1,-1,-1,-1,-1,-1,-1,-1,-1,-1,-1,-1,-1,-1,-1,-1,-1,-1,-1,-1,-1,-1,-1,-1,-1],"loss_changes":[7.435583E7,1.5333434E7,5.82552E6,1.319094E6,2.1326715E6,4.95678E5,5.66348E5,8.0313E4,1.1336456E5,4.1756E5,8.8603E4,4.7409E4,0E0,0E0,0E0,1.01846E5,9.2822625E4,7.6987E4,5.008713E4,1.1937503E5,5.1670875E4,5.5781625E4,0E0,0E0,0E0,1.7504E4,4.7663E4,5.7395E4,8.271228E3,3.7194336E4,2.607175E4,7.4221445E3,7.956953E2,5.1224953E4,1.3934875E4,2.2954875E4,2.2107062E4,0E0,4.876378E4,0E0,0E0,0E0,0E0,0E0,0E0,0E0,0E0,0E0,0E0,0E0,0E0,0E0,0E0,0E0,0E0,0E0,0E0,0E0,0E0,0E0,0E0,0E0,0E0,0E0,0E0],"parents":[2147483647,0,0,1,1,2,2,3,3,4,4,5,5,6,6,7,7,8,8,9,9,10,10,11,11,15,15,16,16,17,17,18,18,19,19,20,20,21,21,25,25,26,26,27,27,28,28,29,29,30,30,31,31,32,32,33,33,34,34,35,35,36,36,38,38],"right_children":[2,4,6,8,10,12,14,16,18,20,22,24,-1,-1,-1,26,28,30,32,34,36,38,-1,-1,-1,40,42,44,46,48,50,52,54,56,58,60,62,-1,64,-1,-1,-1,-1,-1,-1,-1,-1,-1,-1,-1,-1,-1,-1,-1,-1,-1,-1,-1,-1,-1,-1,-1,-1,-1,-1],"split_conditions":[6.509238E2,2.1346886E2,1.232408E3,8.2931E1,4.360545E2,9.487681E2,1.5246033E3,3.1456923E1,1.7522092E2,3.51409E2,4.94284E2,7.0887494E2,5.248946E1,7.109727E1,9.816672E1,5.8208714E1,8.8728714E1,8.804545E-1,8.419644E1,7.725215E1,3.3685898E1,9.166233E0,2.122551E1,2.6867838E1,3.9770836E1,2.0755268E1,2.9845E0,2.6513628E1,2.806E3,1.457991E1,1.096264E2,2.4520715E2,1.5876284E1,2.4166286E2,1.47505E1,4.5841137E1,3.9590784E2,1.8674864E1,4.985894E1,-1.5585363E1,-1.2442975E1,-1.0792304E1,-7.1618795E0,-1.1119477E1,-7.6937013E0,5.4831533E0,-9.377617E-1,-3.5809119E0,3.0620167E0,-8.102043E0,-5.436987E0,-1.6604939E0,4.271358E0,1.0266701E1,3.1719005E0,3.936143E-1,3.54894E0,1.661316E1,4.7287145E0,8.102255E0,1.2976263E1,1.0278776E1,1.7825846E1,6.855082E0,1.5349885E1],"split_indices":[0,0,0,0,0,0,0,0,0,0,0,0,0,0,0,9,9,10,9,9,9,10,0,0,0,9,0,9,1,6,0,7,6,0,8,7,0,0,10,0,0,0,0,0,0,0,0,0,0,0,0,0,0,0,0,0,0,0,0,0,0,0,0,0,0],"split_type":[0,0,0,0,0,0,0,0,0,0,0,0,0,0,0,0,0,0,0,0,0,0,0,0,0,0,0,0,0,0,0,0,0,0,0,0,0,0,0,0,0,0,0,0,0,0,0,0,0,0,0,0,0,0,0,0,0,0,0,0,0,0,0,0,0],"sum_hessian":[5.829E3,5.354E3,4.75E2,4.058E3,1.296E3,3.08E2,1.67E2,3.194E3,8.64E2,9.29E2,3.67E2,1.87E2,1.21E2,1.21E2,4.6E1,2.681E3,5.13E2,6.78E2,1.86E2,6.02E2,3.27E2,1.59E2,2.08E2,2.6E1,1.61E2,6.44E2,2.037E3,4.98E2,1.5E1,2.67E2,4.11E2,1.77E2,9E0,5.83E2,1.9E1,2.68E2,5.9E1,8.4E1,7.5E1,8.3E1,5.61E2,1.935E3,1.02E2,2.35E2,2.63E2,7E0,8E0,2.48E2,1.9E1,1.43E2,2.68E2,1.74E2,3E0,6E0,3E0,1.6E2,4.23E2,1.4E1,5E0,2.38E2,3E1,3.4E1,2.5E1,3.1E1,4.4E1],"tree_param":{"num_deleted":"0","num_feature":"11","num_nodes":"65","size_leaf_vector":"1"}},{"base_weights":[-5.2455044E-1,-2.808254E1,3.185556E2,-5.4270386E1,5.0873352E1,2.4134363E2,4.3280246E2,-6.2328518E1,-2.5197142E1,2.9425684E1,1.0833481E2,2.0861908E2,4.169847E1,5.7218292E1,7.905659E1,-7.009729E1,-5.9949833E1,-2.9479769E1,4.146384E1,1.6172281E1,5.4163452E1,1.2968428E2,9.5507355E1,2.55895E1,2.2861032E2,-6.1152294E1,-8.1362206E1,-6.1885414E1,-4.1194016E1,-3.7779556E1,-1.7257189E1,6.031418E1,1.810875E1,1.3069915E1,7.076044E1,4.969896E1,1.5072672E1,1.7059374E1,2.3870342E1,1.2321277E2,7.5619835E1,2.378033E1,3.608258E1,-1.0139601E1,-7.688245E0,-1.2577717E1,-8.893903E0,-1.0018246E1,-9.092236E0,-7.2172546E0,2.3091173E0,-7.5990214E0,-4.4831014E0,-9.4309765E-1,-4.69838E0,3.6547332E0,1.074616E1,1.1585355E0,5.557748E0,3.9638534E0,-3.594835E-1,7.6744328E0,1.53515835E1,9.653391E0,3.0608084E0,3.1131089E0,1.8743866E1,9.305665E0,1.6617468E1],"categories":[],"categories_nodes":[],"categories_segments":[],"categories_sizes":[],"default_left":[0,0,0,0,0,0,0,0,0,0,0,0,0,0,0,0,0,0,0,0,0,0,0,0,0,0,0,0,0,0,0,0,0,0,0,0,0,0,0,0,0,0,0,0,0,0,0,0,0,0,0,0,0,0,0,0,0,0,0,0,0,0,0,0,0,0,0,0,0],"id":6,"left_children":[1,3,5,7,9,11,13,15,17,19,21,23,-1,-1,-1,25,27,29,31,33,35,37,39,-1,41,43,45,47,49,51,53,55,57,59,61,63,-1,-1,-1,65,67,-1,-1,-1,-1,-1,-1,-1,-1,-1,-1,-1,-1,-1,-1,-1,-1,-1,-1,-1,-1,-1,-1,-1,-1,-1,-1,-1,-1],"loss_changes":[5.143149E7,1.1137939E7,3.892284E6,9.44184E5,1.647387E6,2.21709E5,4.92228E5,4.9952E4,2.5394425E5,3.1948012E5,7.4688E4,4.0939E4,0E0,0E0,0E0,6.3465E4,8.327E4,8.273875E4,2.1510719E4,1.0662147E5,6.0380625E4,2.5087E4,1.1064975E5,0E0,4.49E3,1.9424E4,7.328E3,5.511E3,9.315953E4,4.6906188E4,5.1874523E4,8.221547E3,4.6944707E3,1.2594981E5,1.0418672E4,1.3253562E5,0E0,0E0,0E0,1.16655E4,5.3899438E4,0E0,0E0,0E0,0E0,0E0,0E0,0E0,0E0,0E0,0E0,0E0,0E0,0E0,0E0,0E0,0E0,0E0,0E0,0E0,0E0,0E0,0E0,0E0,0E0,0E0,0E0,0E0,0E0],"parents":[2147483647,0,0,1,1,2,2,3,3,4,4,5,5,6,6,7,7,8,8,9,9,10,10,11,11,15,15,16,16,17,17,18,18,19,19,20,20,21,21,22,22,24,24,25,25,26,26,27,27,28,28,29,29,30,30,31,31,32,32,33,33,34,34,35,35,39,39,40,40],"right_children":[2,4,6,8,10,12,14,16,18,20,22,24,-1,-1,-1,26,28,30,32,34,36,38,40,-1,42,44,46,48,50,52,54,56,58,60,62,64,-1,-1,-1,66,68,-1,-1,-1,-1,-1,-1,-1,-1,-1,-1,-1,-1,-1,-1,-1,-1,-1,-1,-1,-1,-1,-1,-1,-1,-1,-1,-1,-1],"split_conditions":[6.509238E2,2.1124333E2,1.1167745E3,7.944338E1,4.360545E2,8.8265E2,1.4718982E3,4.306284E1,5.1859637E4,3.51409E2,1.6409459E0,1.105777E1,4.169847E1,5.7218292E1,7.905659E1,3.645405E4,7.9465714E0,1.4246225E2,9.938756E1,5.0737727E4,4.9252156E4,5.121275E2,4.1214477E4,2.55895E1,7.0887494E2,5.461E1,5.1137375E4,7.016327E1,5.207262E4,1.5081608E1,4.070722E4,7.10519E1,1.6495855E1,4.0065855E4,5.2488617E4,4.184495E4,1.5072672E1,1.7059374E1,2.3870342E1,3.3796777E4,2.7629091E1,2.378033E1,3.608258E1,-1.0139601E1,-7.688245E0,-1.2577717E1,-8.893903E0,-1.0018246E1,-9.092236E0,-7.2172546E0,2.3091173E0,-7.5990214E0,-4.4831014E0,-9.4309765E-1,-4.69838E0,3.6547332E0,1.074616E1,1.1585355E0,5.557748E0,3.9638534E0,-3.594835E-1,7.6744328E0,1.53515835E1,9.653391E0,3.0608084E0,3.1131089E0,1.8743866E1,9.305665E0,1.6617468E1],"split_indices":[0,0,0,0,0,0,0,9,2,0,10,9,0,0,0,2,0,0,9,2,2,0,2,0,0,0,2,9,2,9,2,9,6,2,2,2,0,0,0,2,9,0,0,0,0,0,0,0,0,0,0,0,0,0,0,0,0,0,0,0,0,0,0,0,0,0,0,0,0],"split_type":[0,0,0,0,0,0,0,0,0,0,0,0,0,0,0,0,0,0,0,0,0,0,0,0,0,0,0,0,0,0,0,0,0,0,0,0,0,0,0,0,0,0,0,0,0,0,0,0,0,0,0,0,0,0,0,0,0,0,0,0,0,0,0,0,0,0,0,0,0],"sum_hessian":[5.845E3,5.382E3,4.63E2,4.042E3,1.34E3,2.8E2,1.83E2,3.163E3,8.79E2,9.78E2,3.62E2,1.55E2,1.25E2,1.25E2,5.8E1,7.28E2,2.435E3,8.27E2,5.2E1,6.39E2,3.39E2,1.29E2,2.33E2,6E1,9.5E1,4.13E2,3.15E2,2.203E3,2.32E2,4.9E2,3.37E2,2.7E1,2.5E1,6.07E2,3.2E1,3.13E2,2.6E1,9E1,3.9E1,9.3E1,1.4E2,1.8E1,7.7E1,2.43E2,1.7E2,2.78E2,3.7E1,4.32E2,1.771E3,2.07E2,2.5E1,1.82E2,3.08E2,1.91E2,1.46E2,8E0,1.9E1,1.8E1,7E0,3.25E2,2.82E2,2.3E1,9E0,2.07E2,1.06E2,2E0,9.1E1,1.05E2,3.5E1],"tree_param":{"num_deleted":"0","num_feature":"11","num_nodes":"69","size_leaf_vector":"1"}},{"base_weights":[1.0071344E0,3.8972374E1,-3.234021E1,3.5439746E0,7.323964E1,-6.084843E0,-4.33231E1,-6.2042766E0,4.7708206E1,1.1769266E2,4.8108982E1,-3.968807E1,2.4729765E1,-5.057138E1,-3.0701206E1,6.669577E0,-2.137994E1,3.630206E1,1.0891512E2,1.00095314E2,1.6386166E2,3.756838E1,1.092916E2,-3.3932755E1,-5.183029E1,4.4705685E1,7.345604E0,-4.1472256E1,-5.1804993E1,-1.832158E1,-3.986319E1,-7.654878E0,3.420473E1,-2.3931166E1,2.5427366E1,4.752465E1,-1.2903486E1,4.7327957E0,2.059413E1,3.8197506E1,1.0900035E2,6.256103E1,1.775026E2,7.5207167E0,5.304089E1,2.1741513E2,7.639783E1,7.244598E0,-3.5684017E1,-5.423919E1,3.326021E1,5.5241932E1,-4.2699287E1,3.266297E1,-1.19059925E1,-5.117426E1,-1.0237916E1,-3.3312565E1,-7.794778E0,-1.2011222E1,-3.5083706E1,-3.476718E1,-5.3473274E1,-1.4138441E0,1.0482083E1,1.1356662E1,3.121264E0,-2.075749E0,-5.130279E0,3.6866623E-1,1.5725253E1,3.1152637E0,1.2578501E1,5.9511924E0,-3.9736865E0,6.577477E0,-3.6625988E0,1.0923527E1,-3.6132193E0,7.7336636E0,1.8171957E1,1.6797466E1,-8.102226E0,2.932908E1,1.1465281E1,2.8680062E0,-3.3206384E0,1.7983872E0,1.0412188E1,-5.9256163E0,3.441724E1,1.9199659E0,1.754997E1,8.119513E0,-4.6081033E0,-9.438924E-1,-5.6358223E0,-3.2793908E0,-8.646563E0,8.069166E0,-2.3938358E0,5.750863E0,2.6288288E1,1.0992487E1,-8.880099E0,8.336037E0,-3.4704406E0,-6.9263716E0,-4.6976587E-1,-7.734611E0,-0E0,-3.1939783E0,1.2646571E1,-5.793307E0,-2.2962556E0,-7.7549106E-1,-5.4650483E0,8.095626E0,-5.585376E0,-5.401751E0,9.385426E0,-1.2798352E0,-8.054587E0],"categories":[],"categories_nodes":[],"categories_segments":[],"categories_sizes":[],"default_left":[0,0,0,0,0,0,0,0,0,0,0,0,0,0,0,0,0,0,0,0,0,0,0,0,0,0,0,0,0,0,0,0,0,0,0,0,0,0,0,0,0,0,0,0,0,0,0,0,0,0,0,0,0,0,0,0,0,0,0,0,0,0,0,0,0,0,0,0,0,0,0,0,0,0,0,0,0,0,0,0,0,0,0,0,0,0,0,0,0,0,0,0,0,0,0,0,0,0,0,0,0,0,0,0,0,0,0,0,0,0,0,0,0,0,0,0,0,0,0,0,0,0,0],"id":7,"left_children":[1,3,5,7,9,11,13,15,17,19,21,23,25,27,29,31,33,35,37,39,41,43,45,47,49,51,53,55,57,59,61,63,65,67,69,71,73,75,-1,77,79,81,83,85,87,89,91,93,95,97,99,101,103,105,107,109,111,113,-1,115,117,119,121,-1,-1,-1,-1,-1,-1,-1,-1,-1,-1,-1,-1,-1,-1,-1,-1,-1,-1,-1,-1,-1,-1,-1,-1,-1,-1,-1,-1,-1,-1,-1,-1,-1,-1,-1,-1,-1,-1,-1,-1,-1,-1,-1,-1,-1,-1,-1,-1,-1,-1,-1,-1,-1,-1,-1,-1,-1,-1,-1,-1],"loss_changes":[7.350623E6,3.2955072E6,8.90744E5,5.762441E5,1.5301545E6,9.4839775E5,1.961635E5,2.1462E5,1.6089575E5,3.707215E5,5.623794E5,2.700525E4,1.6528369E5,1.11115E4,8.9218625E4,2.3523375E5,6.1401203E4,1.1556931E5,1.079525E5,1.927145E5,1.62716E5,3.5154538E5,4.2528638E5,2.23955E4,3.1710438E4,2.0917447E5,1.2654766E5,5.192197E4,3.125E1,3.5496727E4,2.7959125E4,5.521412E4,1.1018308E5,4.865872E4,4.8624336E4,1.606984E5,3.0665611E4,1.3563491E4,0E0,1.0923552E5,2.0920375E5,1.2162246E5,1.8297675E5,9.0287766E4,3.3433762E5,1.07973E5,2.6026019E5,2.8269525E4,1.5632281E4,1.21705625E4,6.8082188E3,3.9003288E5,5.650952E4,1.4578412E5,4.4163727E4,2.6675938E3,4.9518816E4,2.9307422E2,0E0,4.18531E4,2.182668E4,4.5544562E4,2.3940625E2,0E0,0E0,0E0,0E0,0E0,0E0,0E0,0E0,0E0,0E0,0E0,0E0,0E0,0E0,0E0,0E0,0E0,0E0,0E0,0E0,0E0,0E0,0E0,0E0,0E0,0E0,0E0,0E0,0E0,0E0,0E0,0E0,0E0,0E0,0E0,0E0,0E0,0E0,0E0,0E0,0E0,0E0,0E0,0E0,0E0,0E0,0E0,0E0,0E0,0E0,0E0,0E0,0E0,0E0,0E0,0E0,0E0,0E0,0E0,0E0],"parents":[2147483647,0,0,1,1,2,2,3,3,4,4,5,5,6,6,7,7,8,8,9,9,10,10,11,11,12,12,13,13,14,14,15,15,16,16,17,17,18,18,19,19,20,20,21,21,22,22,23,23,24,24,25,25,26,26,27,27,28,28,29,29,30,30,31,31,32,32,33,33,34,34,35,35,36,36,37,37,39,39,40,40,41,41,42,42,43,43,44,44,45,45,46,46,47,47,48,48,49,49,50,50,51,51,52,52,53,53,54,54,55,55,56,56,57,57,59,59,60,60,61,61,62,62],"right_children":[2,4,6,8,10,12,14,16,18,20,22,24,26,28,30,32,34,36,38,40,42,44,46,48,50,52,54,56,58,60,62,64,66,68,70,72,74,76,-1,78,80,82,84,86,88,90,92,94,96,98,100,102,104,106,108,110,112,114,-1,116,118,120,122,-1,-1,-1,-1,-1,-1,-1,-1,-1,-1,-1,-1,-1,-1,-1,-1,-1,-1,-1,-1,-1,-1,-1,-1,-1,-1,-1,-1,-1,-1,-1,-1,-1,-1,-1,-1,-1,-1,-1,-1,-1,-1,-1,-1,-1,-1,-1,-1,-1,-1,-1,-1,-1,-1,-1,-1,-1,-1,-1,-1],"split_conditions":[3.8682518E1,3.727019E4,6.495998E1,6.1841476E1,1.1430332E1,4.184495E4,5.1137375E4,1.5406347E1,1.64163E2,5.5490417E1,3.474214E1,3.867644E4,5.1466666E-2,7.3881294E1,9.687433E1,3.486828E4,1.8436811E1,1.0798583E0,3.399411E4,2.344E3,2.344E3,4.1650914E4,4.1722862E1,3.922072E1,1.6923132E1,5.227969E4,4.7976387E1,4.545183E4,1.1150417E1,2.2258696E1,7.799295E-1,2.8555319E1,9.69697E-3,1.2161357E0,7.72E0,3.4652027E4,3.406273E4,3.3910938E4,2.059413E1,3.2392498E1,2.112657E0,-6.1448383E-1,3.086E3,3.1611948E1,2.461E3,3.7760703E4,4.070722E4,2.854E3,3.4427637E4,2.23E3,2.461E3,5.143978E4,4.7976387E1,1.9652843E1,4.3644188E4,1.49077835E1,4.9133334E0,4.418107E4,-7.794778E0,2.0033333E0,5.1216367E4,7.558333E-1,8.941211E0,-1.4138441E0,1.0482083E1,1.1356662E1,3.121264E0,-2.075749E0,-5.130279E0,3.6866623E-1,1.5725253E1,3.1152637E0,1.2578501E1,5.9511924E0,-3.9736865E0,6.577477E0,-3.6625988E0,1.0923527E1,-3.6132193E0,7.7336636E0,1.8171957E1,1.6797466E1,-8.102226E0,2.932908E1,1.1465281E1,2.8680062E0,-3.3206384E0,1.7983872E0,1.0412188E1,-5.9256163E0,3.441724E1,1.9199659E0,1.754997E1,8.119513E0,-4.6081033E0,-9.438924E-1,-5.6358223E0,-3.2793908E0,-8.646563E0,8.069166E0,-2.3938358E0,5.750863E0,2.6288288E1,1.0992487E1,-8.880099E0,8.336037E0,-3.4704406E0,-6.9263716E0,-4.6976587E-1,-7.734611E0,-0E0,-3.1939783E0,1.2646571E1,-5.793307E0,-2.2962556E0,-7.7549106E-1,-5.4650483E0,8.095626E0,-5.585376E0,-5.401751E0,9.385426E0,-1.2798352E0,-8.054587E0],"split_indices":[9,2,9,10,9,2,2,9,10,10,10,2,10,9,9,2,3,8,2,1,1,2,10,9,3,2,9,2,4,4,10,3,10,10,4,2,2,2,0,10,10,6,1,9,1,2,2,1,2,1,1,2,9,10,2,6,3,2,0,10,2,10,6,0,0,0,0,0,0,0,0,0,0,0,0,0,0,0,0,0,0,0,0,0,0,0,0,0,0,0,0,0,0,0,0,0,0,0,0,0,0,0,0,0,0,0,0,0,0,0,0,0,0,0,0,0,0,0,0,0,0,0,0],"split_type":[0,0,0,0,0,0,0,0,0,0,0,0,0,0,0,0,0,0,0,0,0,0,0,0,0,0,0,0,0,0,0,0,0,0,0,0,0,0,0,0,0,0,0,0,0,0,0,0,0,0,0,0,0,0,0,0,0,0,0,0,0,0,0,0,0,0,0,0,0,0,0,0,0,0,0,0,0,0,0,0,0,0,0,0,0,0,0,0,0,0,0,0,0,0,0,0,0,0,0,0,0,0,0,0,0,0,0,0,0,0,0,0,0,0,0,0,0,0,0,0,0,0,0],"sum_hessian":[5.802E3,2.713E3,3.089E3,1.335E3,1.378E3,9.12E2,2.177E3,1.095E3,2.4E2,4.95E2,8.83E2,4.36E2,4.76E2,1.379E3,7.98E2,5.93E2,5.02E2,2.05E2,3.5E1,3.63E2,1.32E2,7.56E2,1.27E2,3.01E2,1.35E2,2.2E2,2.56E2,1.73E2,1.206E3,3.42E2,4.56E2,3.91E2,2.02E2,4.77E2,2.5E1,1.67E2,3.8E1,8E0,2.7E1,4.7E1,3.16E2,1.7E1,1.15E2,2.58E2,4.98E2,2.7E1,1E2,1.2E1,2.89E2,1.32E2,3E0,1.97E2,2.3E1,1.1E2,1.46E2,1.31E2,4.2E1,1.4E1,1.192E3,2.51E2,9.1E1,3.37E2,1.19E2,3.84E2,7E0,4.7E1,1.55E2,2.43E2,2.34E2,2.1E1,4E0,9.8E1,6.9E1,7E0,3.1E1,3E0,5E0,3E1,1.7E1,5.7E1,2.59E2,1.2E1,5E0,9.6E1,1.9E1,1.86E2,7.2E1,1.43E2,3.55E2,1E0,2.6E1,4E1,6E1,5E0,7E0,1.8E1,2.71E2,1.4E1,1.18E2,2E0,1E0,1.75E2,2.2E1,2E0,2.1E1,7.8E1,3.2E1,2.8E1,1.18E2,1.3E2,1E0,3.9E1,3E0,9E0,5E0,1.98E2,5.3E1,1E0,9E1,3.34E2,3E0,1E0,1.18E2],"tree_param":{"num_deleted":"0","num_feature":"11","num_nodes":"123","size_leaf_vector":"1"}},{"base_weights":[6.9278485E-1,-2.2822104E1,2.6418558E2,-4.0629574E1,4.4329308E1,2.0638142E2,3.7073975E2,-4.680163E1,-1.3986161E1,2.7092197E1,8.2733505E1,1.761526E2,3.7497963E1,3.2773746E2,6.913483E1,-4.444244E1,-5.68459E1,-1.7603022E1,3.602235E1,4.9628067E1,1.8027864E1,1.0445349E2,6.878271E1,2.0965855E1,1.9487175E2,5.32451E1,3.711598E1,-4.6617214E1,-3.0034807E1,-6.0882416E1,-4.6307953E1,-7.2458177E0,-3.164545E1,1.3063094E1,6.0587433E1,3.0161076E1,6.78741E1,3.1932104E1,-1.2649541E1,9.363425E1,2.0514229E1,9.793543E1,5.058783E1,2.2104336E1,3.0957441E1,-8.939325E0,-6.668193E0,-4.9848776E0,4.9988604E0,-8.006579E0,-1.2980366E1,-7.180932E0,-2.9753952E0,-3.4334683E0,5.5813116E-1,-8.362713E0,-3.8957436E0,4.915748E0,-7.1349037E-1,1.1404424E1,5.005741E0,2.2086167E0,7.3040924E0,1.2071046E1,4.8060694E0,3.83801E0,1.0410277E1,-3.1843727E0,5.8159127E0,1.4911382E1,6.791738E0,8.103778E0,1.569419E1,4.7959204E0,1.0801977E1],"categories":[],"categories_nodes":[],"categories_segments":[],"categories_sizes":[],"default_left":[0,0,0,0,0,0,0,0,0,0,0,0,0,0,0,0,0,0,0,0,0,0,0,0,0,0,0,0,0,0,0,0,0,0,0,0,0,0,0,0,0,0,0,0,0,0,0,0,0,0,0,0,0,0,0,0,0,0,0,0,0,0,0,0,0,0,0,0,0,0,0,0,0,0,0],"id":8,"left_children":[1,3,5,7,9,11,13,15,17,19,21,23,-1,25,-1,27,29,31,33,35,37,39,41,-1,43,-1,-1,45,47,49,51,53,55,57,59,61,63,65,67,69,-1,71,73,-1,-1,-1,-1,-1,-1,-1,-1,-1,-1,-1,-1,-1,-1,-1,-1,-1,-1,-1,-1,-1,-1,-1,-1,-1,-1,-1,-1,-1,-1,-1,-1],"loss_changes":[3.6450996E7,6.462097E6,2.815168E6,7.008085E5,7.4542775E5,3.29349E5,3.4457E5,7.69775E4,1.4703406E5,1.5849694E5,9.15115E4,7.7305E4,0E0,8.6111E4,0E0,8.5358E4,2.198775E4,1.0901906E5,2.936321E4,7.537144E4,2.4097258E5,2.0648375E4,1.0610706E5,0E0,6.0875E3,0E0,0E0,6.31645E4,7.819322E4,8.01505E4,5.86275E3,7.49908E4,4.0653E4,1.1226993E4,5.743125E3,3.054486E4,4.6200188E4,8.860416E4,7.971811E4,2.0454125E4,0E0,1.26335625E4,5.072897E4,0E0,0E0,0E0,0E0,0E0,0E0,0E0,0E0,0E0,0E0,0E0,0E0,0E0,0E0,0E0,0E0,0E0,0E0,0E0,0E0,0E0,0E0,0E0,0E0,0E0,0E0,0E0,0E0,0E0,0E0,0E0,0E0],"parents":[2147483647,0,0,1,1,2,2,3,3,4,4,5,5,6,6,7,7,8,8,9,9,10,10,11,11,13,13,15,15,16,16,17,17,18,18,19,19,20,20,21,21,22,22,24,24,27,27,28,28,29,29,30,30,31,31,32,32,33,33,34,34,35,35,36,36,37,37,38,38,39,39,41,41,42,42],"right_children":[2,4,6,8,10,12,14,16,18,20,22,24,-1,26,-1,28,30,32,34,36,38,40,42,-1,44,-1,-1,46,48,50,52,54,56,58,60,62,64,66,68,70,-1,72,74,-1,-1,-1,-1,-1,-1,-1,-1,-1,-1,-1,-1,-1,-1,-1,-1,-1,-1,-1,-1,-1,-1,-1,-1,-1,-1,-1,-1,-1,-1,-1,-1],"split_conditions":[6.509238E2,2.3917729E2,1.232408E3,1.096264E2,4.360545E2,9.487681E2,1.5246033E3,1.188305E1,5.207262E4,3.613308E4,1.9552381E0,1.105777E1,3.7497963E1,3.9969566E1,6.913483E1,4.9022E1,1.8525E0,3.9568336E4,1.5246927E2,3.2385E2,1.5641999E1,4.832281E4,4.092145E4,2.0965855E1,7.4039044E2,5.32451E1,3.711598E1,5.0282467E1,5.1900457E4,4.1946586E4,5.197231E1,1.5246927E2,1.9786175E1,1.3099472E2,2.2642263E1,2.6253984E0,4.021836E2,4.975106E4,3.0535007E1,4.4307746E4,2.0514229E1,1.5573514E-1,-3.3176E0,2.2104336E1,3.0957441E1,-8.939325E0,-6.668193E0,-4.9848776E0,4.9988604E0,-8.006579E0,-1.2980366E1,-7.180932E0,-2.9753952E0,-3.4334683E0,5.5813116E-1,-8.362713E0,-3.8957436E0,4.915748E0,-7.1349037E-1,1.1404424E1,5.005741E0,2.2086167E0,7.3040924E0,1.2071046E1,4.8060694E0,3.83801E0,1.0410277E1,-3.1843727E0,5.8159127E0,1.4911382E1,6.791738E0,8.103778E0,1.569419E1,4.7959204E0,1.0801977E1],"split_indices":[0,0,0,0,0,0,0,10,2,2,10,9,0,10,0,0,5,2,0,0,10,2,2,0,0,0,0,9,2,2,0,0,9,0,4,9,0,2,9,2,0,9,5,0,0,0,0,0,0,0,0,0,0,0,0,0,0,0,0,0,0,0,0,0,0,0,0,0,0,0,0,0,0,0,0],"split_type":[0,0,0,0,0,0,0,0,0,0,0,0,0,0,0,0,0,0,0,0,0,0,0,0,0,0,0,0,0,0,0,0,0,0,0,0,0,0,0,0,0,0,0,0,0,0,0,0,0,0,0,0,0,0,0,0,0,0,0,0,0,0,0,0,0,0,0,0,0,0,0,0,0,0,0],"sum_hessian":[5.879E3,5.399E3,4.8E2,4.268E3,1.131E3,3.15E2,1.65E2,3.464E3,8.04E2,7.83E2,3.48E2,1.92E2,1.23E2,1.18E2,4.7E1,2.814E3,6.5E2,7.51E2,5.3E1,2.22E2,5.61E2,1.31E2,2.17E2,7.1E1,1.21E2,8.3E1,3.5E1,2.441E3,3.73E2,4.63E2,1.87E2,4.34E2,3.17E2,2.9E1,2.4E1,1.1E2,1.12E2,3.86E2,1.75E2,1.04E2,2.7E1,8E1,1.37E2,2.9E1,9.2E1,3.41E2,2.1E3,3.56E2,1.7E1,3.63E2,1E2,1.75E2,1.2E1,1.78E2,2.56E2,5.7E1,2.6E2,1.3E1,1.6E1,1.3E1,1.1E1,6.2E1,4.8E1,8.1E1,3.1E1,3.33E2,5.3E1,1.51E2,2.4E1,9.1E1,1.3E1,1.3E1,6.7E1,7.6E1,6.1E1],"tree_param":{"num_deleted":"0","num_feature":"11","num_nodes":"75","size_leaf_vector":"1"}},{"base_weights":[-2.1255523E-1,-1.9219463E1,2.2991006E2,-3.4784264E1,3.7580772E1,1.691966E2,2.99926E2,-3.978069E1,-1.2104878E1,2.0914944E1,7.149682E1,1.8123859E2,1.3044284E2,2.7344748E2,5.8446404E1,-4.5786682E1,-3.7152046E1,-1.8536066E1,-2.281713E0,5.9525065E0,3.0936827E1,8.516666E1,5.879163E1,1.0580549E2,2.7871521E1,4.7748333E1,2.0142529E1,4.4771084E1,2.1968553E2,-5.37246E1,-3.7718533E1,-3.8508244E1,-1.644099E1,-2.081503E1,1.4680069E1,-4.7826385E0,3.834788E1,1.0233843E1,-3.8932278E1,5.1411064E1,2.3358349E1,1.1381375E1,1.0454748E2,4.155247E1,7.2355354E1,2.8640823E0,1.6380009E1,9.491103E0,2.870038E0,3.4578064E1,1.7896063E1,-7.478759E0,-9.994905E0,-5.061867E0,-7.1046076E0,-6.21384E0,-5.4913588E0,-3.0893004E0,2.5424132E0,-2.7388296E0,-7.1049285E0,2.2165039E-1,3.5993094E0,3.4901195E0,-9.2392063E-1,6.1751814E0,-4.2959675E-1,1.0158002E1,1.2817308E0,-9.307731E0,-1.0315636E0,6.55329E0,1.1425128E1,3.8221698E0,-5.983391E0,5.1302915E0,1.610702E1,4.603942E0,1.1212594E1,1.0097085E1,1.929028E1],"categories":[],"categories_nodes":[],"categories_segments":[],"categories_sizes":[],"default_left":[0,0,0,0,0,0,0,0,0,0,0,0,0,0,0,0,0,0,0,0,0,0,0,0,0,0,0,0,0,0,0,0,0,0,0,0,0,0,0,0,0,0,0,0,0,0,0,0,0,0,0,0,0,0,0,0,0,0,0,0,0,0,0,0,0,0,0,0,0,0,0,0,0,0,0,0,0,0,0,0,0],"id":9,"left_children":[1,3,5,7,9,11,13,15,17,19,21,23,25,27,-1,29,31,33,35,37,39,41,43,45,-1,47,-1,-1,49,51,53,55,57,59,61,63,65,67,69,71,73,-1,75,77,79,-1,-1,-1,-1,-1,-1,-1,-1,-1,-1,-1,-1,-1,-1,-1,-1,-1,-1,-1,-1,-1,-1,-1,-1,-1,-1,-1,-1,-1,-1,-1,-1,-1,-1,-1,-1],"loss_changes":[2.5626672E7,4.7872755E6,1.798194E6,4.80464E5,6.5542025E5,6.6274E4,2.73234E5,5.14715E4,4.8539062E4,1.1715706E5,5.6360625E4,2.28055E4,7.6385E3,9.0343E4,0E0,6.316625E4,6.69895E4,3.5817016E4,3.1528E4,6.1685055E4,7.029519E4,1.636575E4,4.1807562E4,1.16828125E2,0E0,1.6185547E2,0E0,0E0,9.90025E3,1.9439375E4,1.6954812E4,9.527E3,2.1925246E4,2.7795625E4,3.7161367E3,1.1508021E4,2.3660176E3,2.7020344E4,1.9828184E4,1.7122438E4,4.8472703E4,0E0,3.07425E3,2.9554953E4,1.42499375E4,0E0,0E0,0E0,0E0,0E0,0E0,0E0,0E0,0E0,0E0,0E0,0E0,0E0,0E0,0E0,0E0,0E0,0E0,0E0,0E0,0E0,0E0,0E0,0E0,0E0,0E0,0E0,0E0,0E0,0E0,0E0,0E0,0E0,0E0,0E0,0E0],"parents":[2147483647,0,0,1,1,2,2,3,3,4,4,5,5,6,6,7,7,8,8,9,9,10,10,11,11,12,12,13,13,15,15,16,16,17,17,18,18,19,19,20,20,21,21,22,22,23,23,25,25,28,28,29,29,30,30,31,31,32,32,33,33,34,34,35,35,36,36,37,37,38,38,39,39,40,40,42,42,43,43,44,44],"right_children":[2,4,6,8,10,12,14,16,18,20,22,24,26,28,-1,30,32,34,36,38,40,42,44,46,-1,48,-1,-1,50,52,54,56,58,60,62,64,66,68,70,72,74,-1,76,78,80,-1,-1,-1,-1,-1,-1,-1,-1,-1,-1,-1,-1,-1,-1,-1,-1,-1,-1,-1,-1,-1,-1,-1,-1,-1,-1,-1,-1,-1,-1,-1,-1,-1,-1,-1,-1],"split_conditions":[6.839204E2,2.3663728E2,1.0675938E3,1.096264E2,4.360545E2,5.689734E1,1.5246033E3,1.6166668E-1,1.7522092E2,3.077464E2,6.993944E0,7.0887494E2,7.4039044E2,3.9230385E1,5.8446404E1,3.5795856E1,4.9022E1,7.3890114E0,4.6964893E0,7.702124E1,3.0090907E-1,5.191125E2,5.01904E2,2.9096155E0,2.7871521E1,2.806E3,2.0142529E1,4.4771084E1,1.0062409E1,1.6730824E1,2.8111343E1,1.2905585E1,5.1426086E0,1.7089967E2,2.1469599E1,-3.610263E0,3.131E3,-4.237838E0,1.0471836E2,2.2578123E-1,1.4851752E2,1.1381375E1,1.75E0,-1.2084508E0,2.2285196E2,2.8640823E0,1.6380009E1,9.491103E0,2.870038E0,3.4578064E1,1.7896063E1,-7.478759E0,-9.994905E0,-5.061867E0,-7.1046076E0,-6.21384E0,-5.4913588E0,-3.0893004E0,2.5424132E0,-2.7388296E0,-7.1049285E0,2.2165039E-1,3.5993094E0,3.4901195E0,-9.2392063E-1,6.1751814E0,-4.2959675E-1,1.0158002E1,1.2817308E0,-9.307731E0,-1.0315636E0,6.55329E0,1.1425128E1,3.8221698E0,-5.983391E0,5.1302915E0,1.610702E1,4.603942E0,1.1212594E1,1.0097085E1,1.929028E1],"split_indices":[0,0,0,0,0,10,0,5,0,0,10,0,0,10,0,0,0,5,5,10,10,0,0,4,0,1,0,0,4,10,10,8,5,0,4,4,1,4,10,5,10,0,4,5,7,0,0,0,0,0,0,0,0,0,0,0,0,0,0,0,0,0,0,0,0,0,0,0,0,0,0,0,0,0,0,0,0,0,0,0,0],"split_type":[0,0,0,0,0,0,0,0,0,0,0,0,0,0,0,0,0,0,0,0,0,0,0,0,0,0,0,0,0,0,0,0,0,0,0,0,0,0,0,0,0,0,0,0,0,0,0,0,0,0,0,0,0,0,0,0,0,0,0,0,0,0,0,0,0,0,0,0,0,0,0,0,0,0,0,0,0,0,0,0,0],"sum_hessian":[5.855E3,5.41E3,4.45E2,4.247E3,1.163E3,2.42E2,2.03E2,3.479E3,7.68E2,7.82E2,3.81E2,1.79E2,6.3E1,1.63E2,4E1,1.049E3,2.43E3,4.63E2,3.05E2,3.15E2,4.67E2,1.78E2,2.03E2,1.3E1,1.66E2,4E0,5.9E1,1.05E2,5.8E1,5.23E2,5.26E2,2.279E3,1.51E2,4.34E2,2.9E1,2.89E2,1.6E1,2.89E2,2.6E1,1.23E2,3.44E2,1.27E2,5.1E1,9.3E1,1.1E2,1E0,1.2E1,1E0,3E0,5E1,8E0,4.1E2,1.13E2,3.79E2,1.47E2,8.82E2,1.397E3,1.35E2,1.6E1,3.99E2,3.5E1,1.3E1,1.6E1,1.2E1,2.77E2,1.5E1,1E0,6E0,2.83E2,1.4E1,1.2E1,9.8E1,2.5E1,3.34E2,1E1,3E0,4.8E1,7.3E1,2E1,1.05E2,5E0],"tree_param":{"num_deleted":"0","num_feature":"11","num_nodes":"81","size_leaf_vector":"1"}},{"base_weights":[5.0904363E-1,-1.6468222E1,1.9951207E2,-3.0826128E1,2.8910563E1,1.4365575E2,2.5861322E2,-3.4666798E1,-1.4272532E1,1.1639452E1,5.4506023E1,1.2943413E2,2.558566E1,2.3202644E2,5.0717567E1,-4.086391E1,-3.1643255E1,-1.792285E1,3.321718E1,3.4789883E1,3.8148155E0,4.8796806E1,9.180602E1,1.0020829E2,1.3995248E2,2.1638628E2,4.717318E1,-3.4490543E1,-5.0796932E1,-3.3132877E1,-1.8248629E1,-1.3572617E1,-2.5858677E1,1.9449692E1,5.2680595E1,2.4333826E1,6.978199E1,-8.7747777E-1,4.8910923E1,5.894598E1,2.0889463E1,1.0356331E2,5.1149364E1,6.1923456E0,1.07683685E2,3.7911654E0,2.1074507E1,2.2746974E2,2.4993847E1,-5.668083E0,-4.3209515E0,-8.181066E0,-5.7364893E0,-4.7871194E0,-5.6082325E0,-4.0461855E0,3.2794912E0,-2.6263614E0,-5.4333076E-2,-5.0609303E0,-1.333817E0,5.7137184E0,-5.053346E-1,9.80565E0,3.641687E0,4.6583548E0,1.1532074E0,1.9494784E0,1.2853453E1,1.9504426E0,-1.489138E0,5.424307E0,1.2668895E1,5.817083E0,1.0527007E1,9.4809467E-1,4.994653E0,1.56871805E1,2.6343477E0,1.0794501E1,4.039599E0,1.7520258E1,5.599062E0,2.7394873E1,3.7798813E1],"categories":[],"categories_nodes":[],"categories_segments":[],"categories_sizes":[],"default_left":[0,0,0,0,0,0,0,0,0,0,0,0,0,0,0,0,0,0,0,0,0,0,0,0,0,0,0,0,0,0,0,0,0,0,0,0,0,0,0,0,0,0,0,0,0,0,0,0,0,0,0,0,0,0,0,0,0,0,0,0,0,0,0,0,0,0,0,0,0,0,0,0,0,0,0,0,0,0,0,0,0,0,0,0,0],"id":10,"left_children":[1,3,5,7,9,11,13,15,17,19,21,23,-1,25,-1,27,29,31,33,35,37,39,41,43,45,47,-1,49,51,53,55,57,59,61,63,65,67,69,71,73,75,77,79,-1,81,-1,-1,83,-1,-1,-1,-1,-1,-1,-1,-1,-1,-1,-1,-1,-1,-1,-1,-1,-1,-1,-1,-1,-1,-1,-1,-1,-1,-1,-1,-1,-1,-1,-1,-1,-1,-1,-1,-1,-1],"loss_changes":[1.9771136E7,3.514911E6,1.443836E6,2.59436E5,5.720195E5,4.77945E4,3.09665E5,5.9624E4,1.355236E5,1.4044461E5,1.020615E5,2.274075E4,0E0,8.5198E4,0E0,6.4971875E4,4.349375E4,2.4149469E4,1.288452E4,6.8222125E4,1.2349909E5,1.26896625E5,2.1277625E4,1.3425406E4,3.45E1,7.0805E3,0E0,1.02365625E4,1.5426375E4,7.99975E3,8.133782E4,2.4410469E4,3.318625E4,1.5605009E4,4.665922E3,1.6714914E4,3.7420312E4,6.683337E4,1.8697031E4,7.0112E4,2.2136133E4,5.815E2,5.6027305E3,0E0,1.935275E4,0E0,0E0,3.7264E4,0E0,0E0,0E0,0E0,0E0,0E0,0E0,0E0,0E0,0E0,0E0,0E0,0E0,0E0,0E0,0E0,0E0,0E0,0E0,0E0,0E0,0E0,0E0,0E0,0E0,0E0,0E0,0E0,0E0,0E0,0E0,0E0,0E0,0E0,0E0,0E0,0E0],"parents":[2147483647,0,0,1,1,2,2,3,3,4,4,5,5,6,6,7,7,8,8,9,9,10,10,11,11,13,13,15,15,16,16,17,17,18,18,19,19,20,20,21,21,22,22,23,23,24,24,25,25,27,27,28,28,29,29,30,30,31,31,32,32,33,33,34,34,35,35,36,36,37,37,38,38,39,39,40,40,41,41,42,42,44,44,47,47],"right_children":[2,4,6,8,10,12,14,16,18,20,22,24,-1,26,-1,28,30,32,34,36,38,40,42,44,46,48,-1,50,52,54,56,58,60,62,64,66,68,70,72,74,76,78,80,-1,82,-1,-1,84,-1,-1,-1,-1,-1,-1,-1,-1,-1,-1,-1,-1,-1,-1,-1,-1,-1,-1,-1,-1,-1,-1,-1,-1,-1,-1,-1,-1,-1,-1,-1,-1,-1,-1,-1,-1,-1],"split_conditions":[6.839204E2,2.1124333E2,1.0675938E3,9.3635284E1,3.91668E2,9.487681E2,1.5246033E3,1.1033766E0,5.2112215E4,3.4762484E4,4.832281E4,3.927928E4,2.558566E1,4.8884742E4,5.0717567E1,3.8302957E4,7.9465714E0,4.0275883E4,1.5246927E2,3.2681332E2,4.9834242E4,4.3347773E4,5.742029E-1,2.332E3,2.096E3,4.6052504E4,4.717318E1,5.461E1,5.0947184E4,5.195377E4,5.195377E4,-1.2084508E0,4.880753E4,1.3707533E2,2.2642263E1,2.5908E2,-2.2521052E0,4.020269E4,5.2488617E4,4.4210513E2,-3.3176E0,2.457716E1,5.0814707E4,6.1923456E0,3.086E3,3.7911654E0,2.1074507E1,4.0275883E4,2.4993847E1,-5.668083E0,-4.3209515E0,-8.181066E0,-5.7364893E0,-4.7871194E0,-5.6082325E0,-4.0461855E0,3.2794912E0,-2.6263614E0,-5.4333076E-2,-5.0609303E0,-1.333817E0,5.7137184E0,-5.053346E-1,9.80565E0,3.641687E0,4.6583548E0,1.1532074E0,1.9494784E0,1.2853453E1,1.9504426E0,-1.489138E0,5.424307E0,1.2668895E1,5.817083E0,1.0527007E1,9.4809467E-1,4.994653E0,1.56871805E1,2.6343477E0,1.0794501E1,4.039599E0,1.7520258E1,5.599062E0,2.7394873E1,3.7798813E1],"split_indices":[0,0,0,0,0,0,0,5,2,2,2,2,0,2,0,2,0,2,0,0,2,2,3,1,1,2,0,0,2,2,2,5,2,0,4,0,4,2,2,0,5,4,2,0,1,0,0,2,0,0,0,0,0,0,0,0,0,0,0,0,0,0,0,0,0,0,0,0,0,0,0,0,0,0,0,0,0,0,0,0,0,0,0,0,0],"split_type":[0,0,0,0,0,0,0,0,0,0,0,0,0,0,0,0,0,0,0,0,0,0,0,0,0,0,0,0,0,0,0,0,0,0,0,0,0,0,0,0,0,0,0,0,0,0,0,0,0,0,0,0,0,0,0,0,0,0,0,0,0,0,0,0,0,0,0,0,0,0,0,0,0,0,0,0,0,0,0,0,0,0,0,0,0],"sum_hessian":[5.848E3,5.39E3,4.58E2,4.095E3,1.295E3,2.39E2,2.19E2,3.322E3,7.73E2,7.75E2,5.2E2,1.64E2,7.5E1,1.7E2,4.9E1,1.081E3,2.241E3,7.19E2,5.4E1,1.94E2,5.81E2,4.55E2,6.5E1,4.9E1,1.15E2,1.49E2,2.1E1,6.64E2,4.17E2,2.014E3,2.27E2,4.68E2,2.51E2,3.4E1,2E1,1.52E2,4.2E1,5.28E2,5.3E1,3.32E2,1.23E2,4.8E1,1.7E1,7E0,4.2E1,1E0,1.14E2,1.16E2,3.3E1,4.13E2,2.51E2,3.16E2,1.01E2,1.579E3,4.35E2,1.87E2,4E1,3.6E2,1.08E2,1.7E2,8.1E1,1.8E1,1.6E1,1.2E1,8E0,1.07E2,4.5E1,1E1,3.2E1,2.08E2,3.2E2,4.2E1,1.1E1,1.22E2,2.1E2,5.8E1,6.5E1,4.7E1,1E0,7E0,1E1,3.6E1,6E0,4.7E1,6.9E1],"tree_param":{"num_deleted":"0","num_feature":"11","num_nodes":"85","size_leaf_vector":"1"}},{"base_weights":[6.2485427E-1,-1.395228E1,1.6474062E2,-2.5162634E1,2.7975641E1,1.2616212E2,2.3304146E2,-2.8701534E1,-9.325001E0,1.8508636E1,5.5258503E1,1.0479333E2,1.558277E2,1.9998419E2,2.88823E2,-4.2573982E1,-2.75307E1,-1.2828004E1,6.589609E0,1.505224E1,4.6812725E1,6.2896755E1,3.268103E1,8.3687584E1,1.2083841E2,1.1044383E2,1.679514E2,3.452841E1,1.5765428E2,1.9496136E1,4.4832775E1,-8.400069E0,-3.5977577E1,-2.8888083E1,-1.5145987E1,-2.026947E1,-8.48563E0,6.439324E-1,2.7421574E1,1.217816E1,4.210007E1,2.3352009E1,5.7184147E1,5.0518894E1,7.9989204E1,8.817097E0,4.835816E1,4.3549404E1,9.026863E1,9.5820015E1,1.3633229E2,1.74589E1,4.734465E0,1.972183E2,1.330035E2,1.6199219E2,7.65204E0,-5.533303E0,1.62467E0,-5.491609E0,-4.0439367E0,-1.2649708E0,-2.9758682E0,-4.310103E0,-2.456932E0,1.8651856E-1,-1.9487069E0,1.3989089E0,-5.2922373E0,1.9749261E0,5.429802E0,3.8394463E0,1.0286747E0,2.8261654E0,1.0629575E1,1.6793292E0,8.306703E0,9.343127E0,3.882124E0,7.709422E0,1.2007012E0,1.6342308E1,1.0618191E1,3.0050685E0,-3.133208E0,9.636724E0,3.7712026E0,6.9333377E0,1.825462E0,1.4164241E1,4.988925E0,8.631322E0,1.6404322E1,2.0805666E1,5.294868E0,3.0194386E1,7.8729243E0,1.3632735E1,2.4918982E1,3.0097656E0,2.460739E1],"categories":[],"categories_nodes":[],"categories_segments":[],"categories_sizes":[],"default_left":[0,0,0,0,0,0,0,0,0,0,0,0,0,0,0,0,0,0,0,0,0,0,0,0,0,0,0,0,0,0,0,0,0,0,0,0,0,0,0,0,0,0,0,0,0,0,0,0,0,0,0,0,0,0,0,0,0,0,0,0,0,0,0,0,0,0,0,0,0,0,0,0,0,0,0,0,0,0,0,0,0,0,0,0,0,0,0,0,0,0,0,0,0,0,0,0,0,0,0,0,0],"id":11,"left_children":[1,3,5,7,9,11,13,15,17,19,21,23,25,27,29,31,33,35,37,39,41,43,45,47,49,51,53,-1,55,-1,-1,-1,57,59,61,63,65,67,69,71,73,75,77,79,81,83,85,87,89,91,93,-1,-1,95,97,99,-1,-1,-1,-1,-1,-1,-1,-1,-1,-1,-1,-1,-1,-1,-1,-1,-1,-1,-1,-1,-1,-1,-1,-1,-1,-1,-1,-1,-1,-1,-1,-1,-1,-1,-1,-1,-1,-1,-1,-1,-1,-1,-1,-1,-1],"loss_changes":[1.3842028E7,2.4991278E6,1.184532E6,2.34491E5,2.8767856E5,1.610585E5,1.93781E5,5.324825E4,4.3046234E4,8.031491E4,4.5459688E4,4.1880625E4,3.08505E4,7.02325E4,1.45815E4,1.91715E4,5.230375E4,2.001714E4,1.7277037E4,5.7068062E4,1.914761E4,3.68515E4,2.7897148E4,1.47209375E4,1.240425E4,7.5205625E3,4.335325E4,0E0,7.776875E3,0E0,0E0,0E0,8.587016E3,4.042275E4,9.623977E3,6.6195938E3,1.766646E4,3.5254113E4,2.8761934E3,4.808958E4,4.474007E4,1.0762484E4,6.432625E3,3.9289062E3,7.3116875E3,1.1831465E4,1.3646742E4,1.5854883E2,1.0664875E4,1.0573594E4,3.69475E3,0E0,0E0,6.35325E3,3.7906E4,7.830375E3,0E0,0E0,0E0,0E0,0E0,0E0,0E0,0E0,0E0,0E0,0E0,0E0,0E0,0E0,0E0,0E0,0E0,0E0,0E0,0E0,0E0,0E0,0E0,0E0,0E0,0E0,0E0,0E0,0E0,0E0,0E0,0E0,0E0,0E0,0E0,0E0,0E0,0E0,0E0,0E0,0E0,0E0,0E0,0E0,0E0],"parents":[2147483647,0,0,1,1,2,2,3,3,4,4,5,5,6,6,7,7,8,8,9,9,10,10,11,11,12,12,13,13,14,14,15,15,16,16,17,17,18,18,19,19,20,20,21,21,22,22,23,23,24,24,25,25,26,26,28,28,32,32,33,33,34,34,35,35,36,36,37,37,38,38,39,39,40,40,41,41,42,42,43,43,44,44,45,45,46,46,47,47,48,48,49,49,50,50,53,53,54,54,55,55],"right_children":[2,4,6,8,10,12,14,16,18,20,22,24,26,28,30,32,34,36,38,40,42,44,46,48,50,52,54,-1,56,-1,-1,-1,58,60,62,64,66,68,70,72,74,76,78,80,82,84,86,88,90,92,94,-1,-1,96,98,100,-1,-1,-1,-1,-1,-1,-1,-1,-1,-1,-1,-1,-1,-1,-1,-1,-1,-1,-1,-1,-1,-1,-1,-1,-1,-1,-1,-1,-1,-1,-1,-1,-1,-1,-1,-1,-1,-1,-1,-1,-1,-1,-1,-1,-1],"split_conditions":[6.509238E2,2.4166286E2,1.232408E3,1.13284E2,4.7640875E2,9.487681E2,1.4718982E3,1.4696788E1,5.5423283E1,1.1033766E0,3.045689E1,1.4696788E1,2.344E3,2.5513393E1,-6.488889E-1,5.461E1,6.213475E1,1.5246927E2,1.78435E2,5.0620632E1,3.11404E2,1.9786175E1,5.044803E2,2.344E3,7.841996E2,5.9125824E0,2.806E3,3.452841E1,1.6166668E-1,1.9496136E1,4.4832775E1,-8.400069E0,1.9737285E2,4.687833E1,9.69697E-3,-4.1773915E0,4.0686665E0,1.7089967E2,5.1426086E0,9.69697E-3,-6.488889E-1,9.291829E1,3.085E3,5.629226E2,1.7668488E0,6.887324E0,1.6472328E1,1.4851752E2,3.086E3,3.331266E1,2.0302856E1,1.74589E1,4.734465E0,1.8336424E2,2.995E3,2.7443794E1,7.65204E0,-5.533303E0,1.62467E0,-5.491609E0,-4.0439367E0,-1.2649708E0,-2.9758682E0,-4.310103E0,-2.456932E0,1.8651856E-1,-1.9487069E0,1.3989089E0,-5.2922373E0,1.9749261E0,5.429802E0,3.8394463E0,1.0286747E0,2.8261654E0,1.0629575E1,1.6793292E0,8.306703E0,9.343127E0,3.882124E0,7.709422E0,1.2007012E0,1.6342308E1,1.0618191E1,3.0050685E0,-3.133208E0,9.636724E0,3.7712026E0,6.9333377E0,1.825462E0,1.4164241E1,4.988925E0,8.631322E0,1.6404322E1,2.0805666E1,5.294868E0,3.0194386E1,7.8729243E0,1.3632735E1,2.4918982E1,3.0097656E0,2.460739E1],"split_indices":[0,0,0,0,0,0,0,9,9,5,10,9,1,10,4,0,0,0,0,7,0,9,0,1,0,8,1,0,5,0,0,0,7,9,10,5,10,0,5,10,4,9,1,0,8,4,9,10,1,9,4,0,0,7,1,10,0,0,0,0,0,0,0,0,0,0,0,0,0,0,0,0,0,0,0,0,0,0,0,0,0,0,0,0,0,0,0,0,0,0,0,0,0,0,0,0,0,0,0,0,0],"split_type":[0,0,0,0,0,0,0,0,0,0,0,0,0,0,0,0,0,0,0,0,0,0,0,0,0,0,0,0,0,0,0,0,0,0,0,0,0,0,0,0,0,0,0,0,0,0,0,0,0,0,0,0,0,0,0,0,0,0,0,0,0,0,0,0,0,0,0,0,0,0,0,0,0,0,0,0,0,0,0,0,0,0,0,0,0,0,0,0,0,0,0,0,0,0,0,0,0,0,0,0,0],"sum_hessian":[5.782E3,5.312E3,4.7E2,4.192E3,1.12E3,3.04E2,1.66E2,3.425E3,7.67E2,8.34E2,2.86E2,1.82E2,1.22E2,1.1E2,5.6E1,2.61E2,3.164E3,6.29E2,1.38E2,7.46E2,8.8E1,2.11E2,7.5E1,8.4E1,9.8E1,3E1,9.2E1,5.9E1,5.1E1,5E0,5.1E1,8.1E1,1.8E2,2.849E3,3.15E2,2.29E2,4E2,1.09E2,2.9E1,6.77E2,6.9E1,2.9E1,5.9E1,1.27E2,8.4E1,3.1E1,4.4E1,1.4E1,7E1,4.3E1,5.5E1,2.7E1,3E0,4.5E1,4.7E1,4.8E1,3E0,1.77E2,3E0,5.62E2,2.287E3,1.32E2,1.83E2,6.8E1,1.61E2,1.27E2,2.73E2,8.9E1,2E1,1.3E1,1.6E1,1.9E2,4.87E2,4E1,2.9E1,2.3E1,6E0,4.9E1,1E1,1.24E2,3E0,1.5E1,6.9E1,2.3E1,8E0,2.4E1,2E1,1.2E1,2E0,6.4E1,6E0,1.4E1,2.9E1,5.3E1,2E0,4.3E1,2E0,2.4E1,2.3E1,1E0,4.7E1],"tree_param":{"num_deleted":"0","num_feature":"11","num_nodes":"101","size_leaf_vector":"1"}},{"base_weights":[5.1085776E-1,-1.1615414E1,1.4486475E2,-1.992474E1,3.1405743E1,1.2063324E2,2.2005083E2,-2.4132465E1,-3.6956184E0,1.4300795E1,4.051229E1,1.002989E2,1.4952655E2,1.3179935E2,3.441614E1,-2.5382986E1,-1.7741018E1,3.956176E0,-1.0716333E1,2.2320236E1,5.3470397E-1,3.380845E1,5.3660583E1,1.2483978E2,8.7907486E1,1.5567466E1,1.6030188E2,2.0480282E1,3.2248628E0,-3.0968847E1,-2.3341314E1,-2.1626892E1,-4.0852866E0,5.9689205E1,3.047193E0,-8.259001E0,-2.7748566E1,3.278992E1,1.6041862E1,1.857142E1,-1.0488698E1,2.5233765E1,4.5223373E1,6.7014015E1,4.526096E1,9.595836E0,1.3356216E2,1.4004003E1,9.033969E1,2.761978E1,1.2753763E2,-4.0700254E0,-5.475777E0,-3.6683152E0,-2.3427908E0,-3.3151555E0,3.1938646E0,-2.4614794E0,4.8732355E-1,2.4969988E0,1.2509669E1,-1.0535473E0,8.752122E-1,-2.425569E0,-2.1097465E-1,-1.5978961E0,-5.8983974E0,2.7062967E0,7.371635E0,1.3885965E0,3.9566276E0,7.057188E-1,7.131313E0,-2.9364052E-1,-6.0060496E0,4.177594E0,-3.126574E0,8.034064E0,5.2959957E0,6.294706E0,1.1054777E1,4.589583E0,7.4431133E0,2.0227917E1,3.1434724E0,3.0051894E0,-4.2935945E-2,8.788281E0,1.438352E1,1.2781543E1,2.2602196E1],"categories":[],"categories_nodes":[],"categories_segments":[],"categories_sizes":[],"default_left":[0,0,0,0,0,0,0,0,0,0,0,0,0,0,0,0,0,0,0,0,0,0,0,0,0,0,0,0,0,0,0,0,0,0,0,0,0,0,0,0,0,0,0,0,0,0,0,0,0,0,0,0,0,0,0,0,0,0,0,0,0,0,0,0,0,0,0,0,0,0,0,0,0,0,0,0,0,0,0,0,0,0,0,0,0,0,0,0,0,0,0],"id":12,"left_children":[1,3,5,7,9,11,13,15,17,19,21,23,25,27,-1,29,31,33,35,37,39,41,43,45,47,-1,49,-1,-1,51,53,55,57,59,61,63,65,67,69,71,73,75,77,79,81,-1,83,85,87,-1,89,-1,-1,-1,-1,-1,-1,-1,-1,-1,-1,-1,-1,-1,-1,-1,-1,-1,-1,-1,-1,-1,-1,-1,-1,-1,-1,-1,-1,-1,-1,-1,-1,-1,-1,-1,-1,-1,-1,-1,-1],"loss_changes":[1.0142246E7,1.9119535E6,7.64589E5,3.05791E5,1.3368069E5,1.718645E5,2.78285E4,2.7493875E4,4.9783547E4,3.3513773E4,4.5997375E4,4.109075E4,3.4483E4,1.8067031E3,0E0,3.238275E4,3.1052547E4,2.2066705E4,1.9721059E4,1.1519797E4,2.3063826E4,3.474353E4,1.47961875E4,1.7223125E4,2.3429E4,0E0,3.7044E4,0E0,0E0,1.470875E4,1.798725E4,1.0262266E4,1.2141629E4,4.266713E3,1.2404829E4,2.2977592E4,1.0984418E4,1.5042961E4,8.1712188E3,1.717632E4,1.7952996E4,2.7815922E4,9.35725E3,5.0849062E3,4.6188906E3,0E0,2.1851875E3,6.3446826E2,1.3281875E4,0E0,2.5024625E4,0E0,0E0,0E0,0E0,0E0,0E0,0E0,0E0,0E0,0E0,0E0,0E0,0E0,0E0,0E0,0E0,0E0,0E0,0E0,0E0,0E0,0E0,0E0,0E0,0E0,0E0,0E0,0E0,0E0,0E0,0E0,0E0,0E0,0E0,0E0,0E0,0E0,0E0,0E0,0E0],"parents":[2147483647,0,0,1,1,2,2,3,3,4,4,5,5,6,6,7,7,8,8,9,9,10,10,11,11,12,12,13,13,15,15,16,16,17,17,18,18,19,19,20,20,21,21,22,22,23,23,24,24,26,26,29,29,30,30,31,31,32,32,33,33,34,34,35,35,36,36,37,37,38,38,39,39,40,40,41,41,42,42,43,43,44,44,46,46,47,47,48,48,50,50],"right_children":[2,4,6,8,10,12,14,16,18,20,22,24,26,28,-1,30,32,34,36,38,40,42,44,46,48,-1,50,-1,-1,52,54,56,58,60,62,64,66,68,70,72,74,76,78,80,82,-1,84,86,88,-1,90,-1,-1,-1,-1,-1,-1,-1,-1,-1,-1,-1,-1,-1,-1,-1,-1,-1,-1,-1,-1,-1,-1,-1,-1,-1,-1,-1,-1,-1,-1,-1,-1,-1,-1,-1,-1,-1,-1,-1,-1],"split_conditions":[6.839204E2,3.0298572E2,1.3228638E3,1.2910457E2,3.88112E2,1.0313376E3,-4.499538E0,5.9647667E1,6.901471E0,2.1317005E1,5.044803E2,5.5999475E0,2.344E3,3.2302532E0,3.441614E1,9.5340914E-1,7.692424E-1,-3.610263E0,8.731712E1,3.0090907E-1,-9.4015E0,-3.3176E0,5.526818E0,2.344E3,7.134815E0,1.5567466E1,2.806E3,2.0480282E1,3.2248628E0,7.3582745E0,9.378461E-1,1.9737285E2,2.461E3,-1.5575555E1,1.5246927E2,2.0185185E2,-4.275324E0,3.5589633E2,1.0072775E1,3.579142E2,3.6826825E2,1.2628616E2,1.251E1,-5.5390477E0,9.798771E0,9.595836E0,1.9883999E1,7.4039044E2,2.344E3,2.761978E1,2.995E3,-4.0700254E0,-5.475777E0,-3.6683152E0,-2.3427908E0,-3.3151555E0,3.1938646E0,-2.4614794E0,4.8732355E-1,2.4969988E0,1.2509669E1,-1.0535473E0,8.752122E-1,-2.425569E0,-2.1097465E-1,-1.5978961E0,-5.8983974E0,2.7062967E0,7.371635E0,1.3885965E0,3.9566276E0,7.057188E-1,7.131313E0,-2.9364052E-1,-6.0060496E0,4.177594E0,-3.126574E0,8.034064E0,5.2959957E0,6.294706E0,1.1054777E1,4.589583E0,7.4431133E0,2.0227917E1,3.1434724E0,3.0051894E0,-4.2935945E-2,8.788281E0,1.438352E1,1.2781543E1,2.2602196E1],"split_indices":[0,0,0,0,0,0,6,0,10,10,0,10,1,4,0,5,5,4,10,10,5,5,10,1,10,0,1,0,0,10,0,7,1,5,0,0,6,0,10,0,0,10,4,5,10,0,4,0,1,0,1,0,0,0,0,0,0,0,0,0,0,0,0,0,0,0,0,0,0,0,0,0,0,0,0,0,0,0,0,0,0,0,0,0,0,0,0,0,0,0,0],"split_type":[0,0,0,0,0,0,0,0,0,0,0,0,0,0,0,0,0,0,0,0,0,0,0,0,0,0,0,0,0,0,0,0,0,0,0,0,0,0,0,0,0,0,0,0,0,0,0,0,0,0,0,0,0,0,0,0,0,0,0,0,0,0,0,0,0,0,0,0,0,0,0,0,0,0,0,0,0,0,0,0,0,0,0,0,0,0,0,0,0,0,0],"sum_hessian":[5.79E3,5.343E3,4.47E2,4.479E3,8.64E2,3.42E2,1.05E2,3.556E3,9.23E2,3.02E2,5.62E2,2.06E2,1.36E2,1.3E1,9.2E1,2.969E3,5.87E2,4.42E2,4.81E2,1.9E2,1.12E2,3.77E2,1.85E2,6.3E1,1.43E2,3E1,1.06E2,1.2E1,1E0,7.87E2,2.182E3,4.56E2,1.31E2,5E0,4.37E2,4.23E2,5.8E1,6.8E1,1.22E2,4.2E1,7E1,2.19E2,1.58E2,6.6E1,1.19E2,1E1,5.3E1,5E0,1.38E2,5.6E1,5E1,4.72E2,3.15E2,1.903E3,2.79E2,4.52E2,4E0,4.8E1,8.3E1,3E0,2E0,9.4E1,3.43E2,1.95E2,2.28E2,2.5E1,3.3E1,3.8E1,3E1,7.6E1,4.6E1,3E1,1.2E1,5.6E1,1.4E1,2.08E2,1.1E1,8.1E1,7.7E1,1.7E1,4.9E1,3.1E1,8.8E1,5.2E1,1E0,3E0,2E0,2.4E1,1.14E2,2.1E1,2.9E1],"tree_param":{"num_deleted":"0","num_feature":"11","num_nodes":"91","size_leaf_vector":"1"}},{"base_weights":[5.1092786E-1,-1.0327822E1,1.2000475E2,-1.8459763E1,2.0614485E1,8.6256386E1,1.6069765E2,-2.103311E1,-6.6630616E0,5.65303E0,3.0932844E1,5.8271645E1,9.4734085E1,1.4066333E2,2.0449384E2,-3.265524E1,-2.0086676E1,-9.146787E0,2.7629673E1,2.5621592E1,-5.7739574E-1,5.0551914E1,2.3076778E1,3.8325058E1,9.1604965E1,1.0419494E2,7.0236145E1,1.2836115E2,3.309933E1,1.8993654E1,2.2314268E2,-2.8865768E1,-1.1250422E1,-8.36632E0,-2.1543493E1,-1.71336E-1,-2.0744179E1,4.298103E1,1.0194636E1,1.0986234E1,5.236207E1,-5.870303E0,2.9385378E1,4.2983883E1,9.832781E1,1.4803054E1,4.757123E1,9.166706E0,2.7642996E1,1.03984314E2,6.1087794E0,1.4952194E2,9.694981E1,4.62096E1,7.519435E1,1.5254733E2,1.0054507E2,3.6178997E1,1.9080662E1,-4.441802E0,6.596664E-1,-1.8707887E0,4.5183182E-1,-4.993463E0,-2.9401872E0,-2.4945111E0,6.5718246E-1,-4.685272E0,-1.6054926E0,1.3518069E0,8.087846E0,2.4353967E0,-4.8342583E-1,1.6494891E-1,3.6416614E0,9.107025E0,-4.0264153E0,5.106951E-1,-2.977168E0,2.606258E0,7.349394E0,5.2015476E0,9.737423E0,9.190151E0,1.8027552E1,4.272364E0,1.1997805E-1,2.825544E0,8.862516E0,4.3769603E0,-1.180301E0,1.9434906E0,1.6163364E1,2.480455E1,7.2487082E0,1.6214197E1,1.0572583E1,9.312185E0,2.9937084E0,7.0094523E0,1.2280978E1,2.432367E1,1.5432574E1,1.9214626E1,1.09143095E1],"categories":[],"categories_nodes":[],"categories_segments":[],"categories_sizes":[],"default_left":[0,0,0,0,0,0,0,0,0,0,0,0,0,0,0,0,0,0,0,0,0,0,0,0,0,0,0,0,0,0,0,0,0,0,0,0,0,0,0,0,0,0,0,0,0,0,0,0,0,0,0,0,0,0,0,0,0,0,0,0,0,0,0,0,0,0,0,0,0,0,0,0,0,0,0,0,0,0,0,0,0,0,0,0,0,0,0,0,0,0,0,0,0,0,0,0,0,0,0,0,0,0,0,0,0],"id":13,"left_children":[1,3,5,7,9,11,13,15,17,19,21,23,25,27,29,31,33,35,37,39,41,43,45,47,49,51,53,55,-1,-1,57,59,-1,61,63,65,67,69,71,73,75,77,79,81,83,85,87,-1,89,91,-1,93,95,97,99,101,103,-1,-1,-1,-1,-1,-1,-1,-1,-1,-1,-1,-1,-1,-1,-1,-1,-1,-1,-1,-1,-1,-1,-1,-1,-1,-1,-1,-1,-1,-1,-1,-1,-1,-1,-1,-1,-1,-1,-1,-1,-1,-1,-1,-1,-1,-1,-1,-1],"loss_changes":[7.5689345E6,1.3489445E6,6.39464E5,1.28527125E5,1.7189919E5,5.2862875E4,1.33404E5,3.6946875E4,6.5474516E4,5.703562E4,9.931819E4,3.8060766E4,3.2470375E4,9.653125E4,3.607875E4,3.7129094E4,5.4691625E4,7.418944E4,1.2988352E4,4.1443977E4,5.5986645E4,5.9019156E4,9.479291E4,7.7292656E3,6.5023438E3,1.7722375E4,4.343125E2,6.325825E4,0E0,0E0,2.312525E4,6.2679375E3,0E0,1.6902264E4,6.4072875E4,3.0429387E4,3.2049781E4,8.997094E3,2.3062725E3,9.513976E3,2.8429305E4,3.904367E4,1.0714078E4,2.5459438E4,4.5313594E3,6.850185E4,3.706078E4,0E0,2.390545E3,3.2664844E3,0E0,9.454219E3,2.2633375E4,4.1063945E3,1.535E3,2.55625E2,3.5507625E4,0E0,0E0,0E0,0E0,0E0,0E0,0E0,0E0,0E0,0E0,0E0,0E0,0E0,0E0,0E0,0E0,0E0,0E0,0E0,0E0,0E0,0E0,0E0,0E0,0E0,0E0,0E0,0E0,0E0,0E0,0E0,0E0,0E0,0E0,0E0,0E0,0E0,0E0,0E0,0E0,0E0,0E0,0E0,0E0,0E0,0E0,0E0,0E0],"parents":[2147483647,0,0,1,1,2,2,3,3,4,4,5,5,6,6,7,7,8,8,9,9,10,10,11,11,12,12,13,13,14,14,15,15,16,16,17,17,18,18,19,19,20,20,21,21,22,22,23,23,24,24,25,25,26,26,27,27,30,30,31,31,33,33,34,34,35,35,36,36,37,37,38,38,39,39,40,40,41,41,42,42,43,43,44,44,45,45,46,46,48,48,49,49,51,51,52,52,53,53,54,54,55,55,56,56],"right_children":[2,4,6,8,10,12,14,16,18,20,22,24,26,28,30,32,34,36,38,40,42,44,46,48,50,52,54,56,-1,-1,58,60,-1,62,64,66,68,70,72,74,76,78,80,82,84,86,88,-1,90,92,-1,94,96,98,100,102,104,-1,-1,-1,-1,-1,-1,-1,-1,-1,-1,-1,-1,-1,-1,-1,-1,-1,-1,-1,-1,-1,-1,-1,-1,-1,-1,-1,-1,-1,-1,-1,-1,-1,-1,-1,-1,-1,-1,-1,-1,-1,-1,-1,-1,-1,-1,-1,-1],"split_conditions":[6.18236E2,2.4166286E2,1.0675938E3,1.13284E2,3.579142E2,7.4039044E2,1.4718982E3,1.4696788E1,5.2339934E4,3.5047945E4,3.6604977E4,3.7929424E1,5.689734E1,4.880753E4,4.143071E4,3.9154957E4,3.5555887E4,3.9568336E4,9.938756E1,2.6253984E0,4.4927902E1,2.120114E1,3.292687E1,3.6771824E4,2.806E3,3.6949547E4,2.344E3,1.105777E1,3.309933E1,1.8993654E1,4.832281E4,3.738915E4,-1.1250422E1,7.804727E1,4.3566357E1,2.6253984E0,4.5624637E4,7.10519E1,5.2488617E4,3.077464E2,1.098864E2,1.3415851E1,3.11404E2,4.94284E2,3.522705E4,4.2165418E4,4.05384E2,9.166706E0,5.0947184E4,2.131E3,6.1087794E0,1.0681429E1,1.4822104E1,9.372049E1,6.506303E1,1.3557432E3,1.735176E1,3.6178997E1,1.9080662E1,-4.441802E0,6.596664E-1,-1.8707887E0,4.5183182E-1,-4.993463E0,-2.9401872E0,-2.4945111E0,6.5718246E-1,-4.685272E0,-1.6054926E0,1.3518069E0,8.087846E0,2.4353967E0,-4.8342583E-1,1.6494891E-1,3.6416614E0,9.107025E0,-4.0264153E0,5.106951E-1,-2.977168E0,2.606258E0,7.349394E0,5.2015476E0,9.737423E0,9.190151E0,1.8027552E1,4.272364E0,1.1997805E-1,2.825544E0,8.862516E0,4.3769603E0,-1.180301E0,1.9434906E0,1.6163364E1,2.480455E1,7.2487082E0,1.6214197E1,1.0572583E1,9.312185E0,2.9937084E0,7.0094523E0,1.2280978E1,2.432367E1,1.5432574E1,1.9214626E1,1.09143095E1],"split_indices":[0,0,0,0,0,0,0,9,2,2,2,9,10,2,2,2,2,2,9,9,9,9,9,2,1,2,1,9,0,0,2,2,0,0,9,9,2,9,2,0,10,10,0,0,2,2,0,0,2,1,0,4,10,10,10,0,10,0,0,0,0,0,0,0,0,0,0,0,0,0,0,0,0,0,0,0,0,0,0,0,0,0,0,0,0,0,0,0,0,0,0,0,0,0,0,0,0,0,0,0,0,0,0,0,0],"split_type":[0,0,0,0,0,0,0,0,0,0,0,0,0,0,0,0,0,0,0,0,0,0,0,0,0,0,0,0,0,0,0,0,0,0,0,0,0,0,0,0,0,0,0,0,0,0,0,0,0,0,0,0,0,0,0,0,0,0,0,0,0,0,0,0,0,0,0,0,0,0,0,0,0,0,0,0,0,0,0,0,0,0,0,0,0,0,0,0,0,0,0,0,0,0,0,0,0,0,0,0,0,0,0,0,0],"sum_hessian":[5.84E3,5.356E3,4.84E2,4.242E3,1.114E3,2.68E2,2.16E2,3.481E3,7.61E2,4.56E2,6.58E2,6.6E1,2.02E2,1.54E2,6.2E1,2.57E2,3.224E3,7.11E2,5E1,1.07E2,3.49E2,1.85E2,4.73E2,4.4E1,2.2E1,1.41E2,6.1E1,1.38E2,1.6E1,1.5E1,4.7E1,2.39E2,1.8E1,3.58E2,2.866E3,4.02E2,3.09E2,2.5E1,2.5E1,7.1E1,3.6E1,2.98E2,5.1E1,1.63E2,2.2E1,3.56E2,1.17E2,1.1E1,3.3E1,1.6E1,6E0,1.4E1,1.27E2,1.4E1,4.7E1,6.9E1,6.9E1,3.7E1,1E1,2.34E2,5E0,2.63E2,9.5E1,4.02E2,2.464E3,8.6E1,3.16E2,1.49E2,1.6E2,7E0,1.8E1,1.7E1,8E0,4.2E1,2.9E1,3.3E1,3E0,1.8E2,1.18E2,3.4E1,1.7E1,1.22E2,4.1E1,1.1E1,1.1E1,1.79E2,1.77E2,3.5E1,8.2E1,3.2E1,1E0,1E0,1.5E1,1.1E1,3E0,8.5E1,4.2E1,7E0,7E0,1.2E1,3.5E1,5.4E1,1.5E1,3.1E1,3.8E1],"tree_param":{"num_deleted":"0","num_feature":"11","num_nodes":"105","size_leaf_vector":"1"}},{"base_weights":[6.5217733E-1,-8.336672E0,1.0297587E2,-1.4651375E1,2.1320238E1,7.662561E1,1.4448788E2,-1.6993574E1,-1.4976362E0,1.392687E1,3.3842304E1,6.67363E1,9.1855354E1,1.1532109E2,1.6293945E2,-2.587448E1,-1.6104084E1,1.314112E1,-3.6638653E0,1.0359349E1,2.9699635E1,2.61314E1,4.723414E1,5.408059E1,7.757685E1,5.299057E1,9.879436E1,2.2769012E1,8.261663E1,1.882093E1,1.7937885E2,-3.8584557E1,-2.1581125E1,-1.8141611E1,-8.345832E0,1.5467249E0,4.1731483E1,-6.2948523E0,8.959844E0,1.2809204E1,-8.682849E0,6.3916637E1,1.9050514E1,2.1115507E-1,2.9348232E1,6.7239006E1,4.1395023E1,4.8324463E1,7.9175514E1,5.6350185E1,8.9157646E1,1.0608683E1,2.3918856E1,9.957774E1,1.3644929E0,6.550121E1,1.1459286E2,3.0446524E1,1.3279703E2,-1.2288389E0,-5.926044E0,-3.7110379E0,-8.259207E-1,-3.5280893E0,-2.4071069E0,-1.6262693E0,1.4551971E0,3.142241E0,-4.877467E-1,1.4885624E1,3.7234066E0,-2.474813E0,-6.263042E-1,-9.27876E-1,3.5670223E0,1.7536927E0,6.7027574E0,-1.7850333E0,4.4006867E0,4.5940332E0,1.0672901E1,9.0070575E-1,5.9412975E0,-2.6018684E0,5.8936167E0,4.1318417E0,9.8737755E0,5.4935155E0,1.3468236E1,4.828332E0,8.024609E0,3.95398E0,8.075226E0,1.2719455E1,2.5522158E-1,4.5552874E0,1.0502446E1,1.3619744E1,3.203966E0,-0E0,5.6426964E0,1.8592113E1,1.29563465E1,1.077068E1,3.015747E-3,2.5066347E0,1.7982182E1,6.813047E0,2.0901997E1],"categories":[],"categories_nodes":[],"categories_segments":[],"categories_sizes":[],"default_left":[0,0,0,0,0,0,0,0,0,0,0,0,0,0,0,0,0,0,0,0,0,0,0,0,0,0,0,0,0,0,0,0,0,0,0,0,0,0,0,0,0,0,0,0,0,0,0,0,0,0,0,0,0,0,0,0,0,0,0,0,0,0,0,0,0,0,0,0,0,0,0,0,0,0,0,0,0,0,0,0,0,0,0,0,0,0,0,0,0,0,0,0,0,0,0,0,0,0,0,0,0,0,0,0,0,0,0,0,0],"id":14,"left_children":[1,3,5,7,9,11,13,15,17,19,21,23,25,27,29,31,33,35,37,39,41,43,45,47,49,51,53,-1,55,-1,57,59,61,63,65,67,69,71,73,75,77,79,81,83,85,87,89,91,93,95,97,-1,99,101,-1,103,105,-1,107,-1,-1,-1,-1,-1,-1,-1,-1,-1,-1,-1,-1,-1,-1,-1,-1,-1,-1,-1,-1,-1,-1,-1,-1,-1,-1,-1,-1,-1,-1,-1,-1,-1,-1,-1,-1,-1,-1,-1,-1,-1,-1,-1,-1,-1,-1,-1,-1,-1,-1],"loss_changes":[5.376041E6,1.0068445E6,4.93934E5,1.3644381E5,8.640534E4,3.17105E4,5.95505E4,2.8834625E4,2.1396543E4,3.2937594E4,3.3496875E4,1.6858562E4,1.9043E4,6.653044E4,1.996875E4,1.6773281E4,5.3796062E4,2.8667076E4,1.9606059E4,2.3085363E4,3.7199266E4,1.8802188E4,8.926E3,5.5096562E3,1.31594375E4,7.3487617E3,4.4740625E3,0E0,9.435844E3,0E0,2.160225E4,1.6318125E3,1.2799305E4,2.9733312E4,3.2463738E4,6.11206E3,1.9258156E4,1.0373936E4,2.3207086E4,1.4399844E4,7.6534546E3,1.562E3,2.2543697E4,1.991021E4,9.496844E3,1.05558125E4,7.8347188E3,6.7642812E3,5.7215234E3,9.494664E3,2.4604688E3,0E0,3.6125537E3,7.3334375E3,0E0,1.395875E4,2.586E3,0E0,3.7530938E3,0E0,0E0,0E0,0E0,0E0,0E0,0E0,0E0,0E0,0E0,0E0,0E0,0E0,0E0,0E0,0E0,0E0,0E0,0E0,0E0,0E0,0E0,0E0,0E0,0E0,0E0,0E0,0E0,0E0,0E0,0E0,0E0,0E0,0E0,0E0,0E0,0E0,0E0,0E0,0E0,0E0,0E0,0E0,0E0,0E0,0E0,0E0,0E0,0E0,0E0],"parents":[2147483647,0,0,1,1,2,2,3,3,4,4,5,5,6,6,7,7,8,8,9,9,10,10,11,11,12,12,13,13,14,14,15,15,16,16,17,17,18,18,19,19,20,20,21,21,22,22,23,23,24,24,25,25,26,26,28,28,30,30,31,31,32,32,33,33,34,34,35,35,36,36,37,37,38,38,39,39,40,40,41,41,42,42,43,43,44,44,45,45,46,46,47,47,48,48,49,49,50,50,52,52,53,53,55,55,56,56,58,58],"right_children":[2,4,6,8,10,12,14,16,18,20,22,24,26,28,30,32,34,36,38,40,42,44,46,48,50,52,54,-1,56,-1,58,60,62,64,66,68,70,72,74,76,78,80,82,84,86,88,90,92,94,96,98,-1,100,102,-1,104,106,-1,108,-1,-1,-1,-1,-1,-1,-1,-1,-1,-1,-1,-1,-1,-1,-1,-1,-1,-1,-1,-1,-1,-1,-1,-1,-1,-1,-1,-1,-1,-1,-1,-1,-1,-1,-1,-1,-1,-1,-1,-1,-1,-1,-1,-1,-1,-1,-1,-1,-1,-1],"split_conditions":[6.509238E2,2.7500943E2,1.1900082E3,1.5246927E2,4.4210513E2,9.487681E2,1.3228638E3,1.5081608E1,-4.9456325E0,3.3685898E1,2.0755268E1,1.8955683E1,-1.0338612E1,8.736701E0,5.9632134E0,5.461E1,3.5795856E1,8.523073E0,5.0282467E1,1.2784595E1,1.0228637E1,4.7640875E2,1.6111178E0,1.2876108E2,7.607495E2,-1.4411501E1,1.1874531E2,2.2769012E1,6.4170504E0,1.882093E1,1.1086924E1,5.926667E-1,7.8370833E0,6.54455E1,6.699544E1,-9.180317E0,9.728104E0,2.3634982E0,1.72085E2,3.512983E1,1.1852632E0,-2.3758543E-1,2.9842856E0,1.1026087E1,2.122137E2,-5.9660716E0,4.5510437E1,-4.7294E0,9.049512E2,3.4274746E1,2.0302856E1,1.0608683E1,6.024096E-3,7.56051E0,1.3644929E0,3.6737797E1,-1.808052E0,3.0446524E1,1.2333314E1,-1.2288389E0,-5.926044E0,-3.7110379E0,-8.259207E-1,-3.5280893E0,-2.4071069E0,-1.6262693E0,1.4551971E0,3.142241E0,-4.877467E-1,1.4885624E1,3.7234066E0,-2.474813E0,-6.263042E-1,-9.27876E-1,3.5670223E0,1.7536927E0,6.7027574E0,-1.7850333E0,4.4006867E0,4.5940332E0,1.0672901E1,9.0070575E-1,5.9412975E0,-2.6018684E0,5.8936167E0,4.1318417E0,9.8737755E0,5.4935155E0,1.3468236E1,4.828332E0,8.024609E0,3.95398E0,8.075226E0,1.2719455E1,2.5522158E-1,4.5552874E0,1.0502446E1,1.3619744E1,3.203966E0,-0E0,5.6426964E0,1.8592113E1,1.29563465E1,1.077068E1,3.015747E-3,2.5066347E0,1.7982182E1,6.813047E0,2.0901997E1],"split_indices":[0,0,0,0,0,0,0,9,6,9,9,9,5,9,9,0,0,9,9,4,4,0,6,7,0,5,7,0,6,0,4,0,3,9,9,6,9,9,0,3,5,6,5,3,7,5,9,6,0,9,4,0,3,9,0,9,5,0,9,0,0,0,0,0,0,0,0,0,0,0,0,0,0,0,0,0,0,0,0,0,0,0,0,0,0,0,0,0,0,0,0,0,0,0,0,0,0,0,0,0,0,0,0,0,0,0,0,0,0],"split_type":[0,0,0,0,0,0,0,0,0,0,0,0,0,0,0,0,0,0,0,0,0,0,0,0,0,0,0,0,0,0,0,0,0,0,0,0,0,0,0,0,0,0,0,0,0,0,0,0,0,0,0,0,0,0,0,0,0,0,0,0,0,0,0,0,0,0,0,0,0,0,0,0,0,0,0,0,0,0,0,0,0,0,0,0,0,0,0,0,0,0,0,0,0,0,0,0,0,0,0,0,0,0,0,0,0,0,0,0,0],"sum_hessian":[5.841E3,5.371E3,4.7E2,4.429E3,9.42E2,2.91E2,1.79E2,3.759E3,6.7E2,5.95E2,3.47E2,1.83E2,1.08E2,7.5E1,1.04E2,3.37E2,3.422E3,8.5E1,5.85E2,4.88E2,1.07E2,2.24E2,1.23E2,9E1,9.3E1,1.9E1,8.9E1,3.2E1,4.3E1,3.7E1,6.7E1,8.1E1,2.56E2,2.708E3,7.14E2,6.2E1,2.3E1,4.85E2,1E2,4.33E2,5.5E1,2.3E1,8.4E1,2.5E1,1.99E2,2.3E1,1E2,7.8E1,1.2E1,3.7E1,5.6E1,1E1,9E0,8.8E1,1E0,3.2E1,1.1E1,4E1,2.7E1,3E0,7.8E1,2.13E2,4.3E1,7.53E2,1.955E3,6.28E2,8.6E1,1.1E1,5.1E1,3E0,2E1,8.1E1,4.04E2,5E1,5E1,4.21E2,1.2E1,5.2E1,3E0,6E0,1.7E1,5.3E1,3.1E1,1.8E1,7E0,1.93E2,6E0,1.2E1,1.1E1,6.1E1,3.9E1,1.8E1,6E1,1.1E1,1E0,1.5E1,2.2E1,5.4E1,2E0,4E0,5E0,2.5E1,6.3E1,2.9E1,3E0,1E0,1E1,3E0,2.4E1],"tree_param":{"num_deleted":"0","num_feature":"11","num_nodes":"109","size_leaf_vector":"1"}},{"base_weights":[7.423421E-1,-8.320078E0,7.777947E1,-1.4751492E1,7.7260504E0,5.1627026E1,1.1733114E2,-2.0893885E1,-1.3671681E1,1.6516022E1,-1.1772525E0,4.2091656E1,6.667321E1,1.0312826E2,1.5249564E2,-1.6987986E1,-5.259971E1,-4.9014387E0,-1.5163743E1,8.103033E0,2.8433205E1,-8.381194E0,3.4172436E1,6.969782E1,3.639207E1,5.8663235E1,9.5059296E1,9.278499E1,2.6481882E1,1.4643824E1,1.675271E2,-2.0997446E1,-1.05374155E1,-1.0149661E1,-4.2293415E1,-7.32118E0,4.0022006E0,-2.1256134E1,-1.2884404E1,1.4527704E1,-3.333152E0,1.0705742E1,3.2917664E1,-1.8447876E1,-2.4340727E0,2.7865152E1,5.112436E1,1.1510742E1,8.206195E1,2.5830769E1,6.0560223E1,6.5716866E1,2.0447598E1,2.9027188E0,1.7219618E1,1.0519607E2,7.101165E1,2.9095972E1,1.7608685E1,-2.7700148E0,-4.050115E0,-3.6893685E0,-1.0222591E0,-6.9867706E0,-1.2043954E0,-1.3967294E-1,-1.4792173E0,2.736968E0,-3.7745956E-1,-3.3934534E0,-1.1297897E0,-2.263593E0,7.8986883E-1,6.244871E-1,6.235072E0,-1.2957783E0,1.7591527E0,-3.354285E0,2.951908E0,1.2511998E1,4.41152E0,-5.0969663E0,-2.0153697E0,2.490898E0,-1.1673522E0,-8.220658E-2,4.5664053E0,8.919184E0,3.6459744E0,3.6135697E0,-1.1983832E0,4.0686517E0,1.3575289E1,4.093052E0,-3.7177737E0,7.7719507E0,1.29152E1,5.3762093E0,1.1181493E1,5.449567E0,3.595581E-1,1.8629609E0,-1.5292374E0,1.2314107E1,1.908617E1,5.466429E0,1.1616672E1],"categories":[],"categories_nodes":[],"categories_segments":[],"categories_sizes":[],"default_left":[0,0,0,0,0,0,0,0,0,0,0,0,0,0,0,0,0,0,0,0,0,0,0,0,0,0,0,0,0,0,0,0,0,0,0,0,0,0,0,0,0,0,0,0,0,0,0,0,0,0,0,0,0,0,0,0,0,0,0,0,0,0,0,0,0,0,0,0,0,0,0,0,0,0,0,0,0,0,0,0,0,0,0,0,0,0,0,0,0,0,0,0,0,0,0,0,0,0,0,0,0,0,0,0,0,0,0],"id":15,"left_children":[1,3,5,7,9,11,13,15,17,19,21,23,25,27,29,31,33,35,37,39,41,43,45,47,49,51,53,55,-1,-1,57,59,61,-1,63,65,67,69,71,73,75,77,79,81,83,85,87,89,91,93,95,97,99,101,-1,103,105,-1,-1,-1,-1,-1,-1,-1,-1,-1,-1,-1,-1,-1,-1,-1,-1,-1,-1,-1,-1,-1,-1,-1,-1,-1,-1,-1,-1,-1,-1,-1,-1,-1,-1,-1,-1,-1,-1,-1,-1,-1,-1,-1,-1,-1,-1,-1,-1,-1,-1],"loss_changes":[4.0924805E6,5.4151525E5,6.25924E5,2.4233312E4,1.17600414E5,4.8080062E4,9.0154E4,6.699817E4,4.1587875E4,7.529856E4,1.9103052E5,3.1796781E4,2.0980062E4,1.03657E5,2.1460375E4,1.2405859E4,3.4822031E3,1.0123204E4,3.7273125E4,3.287732E4,2.4054953E4,3.7186938E4,1.0650766E4,2.5355656E4,4.7579156E4,2.8495125E4,5.014786E4,2.8661E4,0E0,0E0,1.9116125E4,3.591E3,9.837746E3,0E0,5.2171797E3,5.9443574E3,9.485667E3,1.3492281E4,7.981472E4,7.975941E4,1.3143863E4,2.0462113E4,3.8905312E4,1.702218E4,4.0371242E4,7.1671797E3,4.1800938E3,2.608766E3,9.346609E3,1.1821836E4,4.121172E3,2.0124438E4,5.807674E3,1.1280144E3,0E0,2.9318375E4,8.695875E3,0E0,0E0,0E0,0E0,0E0,0E0,0E0,0E0,0E0,0E0,0E0,0E0,0E0,0E0,0E0,0E0,0E0,0E0,0E0,0E0,0E0,0E0,0E0,0E0,0E0,0E0,0E0,0E0,0E0,0E0,0E0,0E0,0E0,0E0,0E0,0E0,0E0,0E0,0E0,0E0,0E0,0E0,0E0,0E0,0E0,0E0,0E0,0E0,0E0,0E0],"parents":[2147483647,0,0,1,1,2,2,3,3,4,4,5,5,6,6,7,7,8,8,9,9,10,10,11,11,12,12,13,13,14,14,15,15,16,16,17,17,18,18,19,19,20,20,21,21,22,22,23,23,24,24,25,25,26,26,27,27,30,30,31,31,32,32,34,34,35,35,36,36,37,37,38,38,39,39,40,40,41,41,42,42,43,43,44,44,45,45,46,46,47,47,48,48,49,49,50,50,51,51,52,52,53,53,55,55,56,56],"right_children":[2,4,6,8,10,12,14,16,18,20,22,24,26,28,30,32,34,36,38,40,42,44,46,48,50,52,54,56,-1,-1,58,60,62,-1,64,66,68,70,72,74,76,78,80,82,84,86,88,90,92,94,96,98,100,102,-1,104,106,-1,-1,-1,-1,-1,-1,-1,-1,-1,-1,-1,-1,-1,-1,-1,-1,-1,-1,-1,-1,-1,-1,-1,-1,-1,-1,-1,-1,-1,-1,-1,-1,-1,-1,-1,-1,-1,-1,-1,-1,-1,-1,-1,-1,-1,-1,-1,-1,-1,-1],"split_conditions":[5.191125E2,1.5246927E2,1.0313376E3,2.3447197E1,4.0065855E4,7.968488E2,1.4718982E3,4.0065855E4,3.727019E4,3.323336E2,5.0058938E4,3.65356E4,4.9069094E4,4.8884742E4,4.1542527E4,9.8679E1,2.3661077E1,7.5789696E1,6.699544E1,3.56226E4,-1.0338612E1,2.6913113E2,5.2488617E4,-1.0338612E1,3.331266E1,4.6403145E4,2.120114E1,4.418107E4,2.6481882E1,1.4643824E1,4.6901004E4,3.5555887E4,2.0770493E0,-1.0149661E1,5.0530203E4,1.8952308E0,3.42222E4,1.233424E2,9.378461E-1,8.266307E0,2.5886204E1,3.406273E4,3.3878406E4,1.8083311E1,4.184495E4,1.8303305E1,2.2948954E1,5.2206525E2,3.486828E4,5.1216367E4,5.22193E4,-9.897647E0,9.049512E2,5.160896E4,1.7219618E1,4.1320594E4,1.1167745E3,2.9095972E1,1.7608685E1,-2.7700148E0,-4.050115E0,-3.6893685E0,-1.0222591E0,-6.9867706E0,-1.2043954E0,-1.3967294E-1,-1.4792173E0,2.736968E0,-3.7745956E-1,-3.3934534E0,-1.1297897E0,-2.263593E0,7.8986883E-1,6.244871E-1,6.235072E0,-1.2957783E0,1.7591527E0,-3.354285E0,2.951908E0,1.2511998E1,4.41152E0,-5.0969663E0,-2.0153697E0,2.490898E0,-1.1673522E0,-8.220658E-2,4.5664053E0,8.919184E0,3.6459744E0,3.6135697E0,-1.1983832E0,4.0686517E0,1.3575289E1,4.093052E0,-3.7177737E0,7.7719507E0,1.29152E1,5.3762093E0,1.1181493E1,5.449567E0,3.595581E-1,1.8629609E0,-1.5292374E0,1.2314107E1,1.908617E1,5.466429E0,1.1616672E1],"split_indices":[0,0,0,9,2,0,0,2,2,0,2,2,2,2,2,0,0,0,9,2,5,0,2,5,9,2,9,2,0,0,2,2,9,0,2,0,2,0,0,9,9,2,2,9,2,9,4,0,2,2,2,5,0,2,0,2,0,0,0,0,0,0,0,0,0,0,0,0,0,0,0,0,0,0,0,0,0,0,0,0,0,0,0,0,0,0,0,0,0,0,0,0,0,0,0,0,0,0,0,0,0,0,0,0,0,0,0],"split_type":[0,0,0,0,0,0,0,0,0,0,0,0,0,0,0,0,0,0,0,0,0,0,0,0,0,0,0,0,0,0,0,0,0,0,0,0,0,0,0,0,0,0,0,0,0,0,0,0,0,0,0,0,0,0,0,0,0,0,0,0,0,0,0,0,0,0,0,0,0,0,0,0,0,0,0,0,0,0,0,0,0,0,0,0,0,0,0,0,0,0,0,0,0,0,0,0,0,0,0,0,0,0,0,0,0,0,0],"sum_hessian":[5.858E3,5.243E3,6.15E2,3.743E3,1.5E3,3.73E2,2.42E2,5.54E2,3.189E3,7.54E2,7.46E2,2.33E2,1.4E2,1.78E2,6.4E1,4.96E2,5.8E1,4.65E2,2.724E3,4.44E2,3.1E2,6.21E2,1.25E2,3.6E1,1.97E2,1.14E2,2.6E1,1.6E2,1.8E1,1.7E1,4.7E1,3.03E2,1.93E2,1.9E1,3.9E1,3.66E2,9.9E1,7.37E2,1.987E3,2.84E2,1.6E2,6.4E1,2.46E2,2.29E2,3.92E2,9.5E1,3E1,7E0,2.9E1,1.4E2,5.7E1,9.5E1,1.9E1,5E0,2.1E1,9.7E1,6.3E1,2.7E1,2E1,2.19E2,8.4E1,3.8E1,1.55E2,3.4E1,5E0,1.05E2,2.61E2,3E1,6.9E1,6.69E2,6.8E1,1.772E3,2.15E2,2.07E2,7.7E1,1.19E2,4.1E1,1.3E1,5.1E1,1.3E1,2.33E2,5.3E1,1.76E2,8.5E1,3.07E2,8E0,8.7E1,2.1E1,9E0,4E0,3E0,5E0,2.4E1,1.37E2,3E0,4.7E1,1E1,2.4E1,7.1E1,9E0,1E1,3E0,2E0,5.2E1,4.5E1,1.2E1,5.1E1],"tree_param":{"num_deleted":"0","num_feature":"11","num_nodes":"107","size_leaf_vector":"1"}},{"base_weights":[6.735965E-1,-6.0517745E0,7.8751335E1,-1.0582788E1,1.5797811E1,5.934768E1,1.0679601E2,-1.3255573E1,-4.3909154E0,2.4084728E1,6.7638845E0,4.877791E1,7.3815704E1,6.753016E1,1.190941E2,-1.9820839E1,-1.1833897E1,-6.232956E0,1.9598297E1,2.2253868E1,6.844687E1,-2.02029E0,3.733759E1,3.631319E1,6.0648758E1,6.2663223E1,1.22342384E2,8.0925255E1,2.2410248E1,9.2149704E1,1.3664935E2,-1.48291E1,-3.442921E1,9.5282423E-1,-1.2395126E1,-3.34942E-1,-1.6447344E1,2.4848854E1,6.953655E0,1.8228601E1,3.649102E1,7.5618866E1,5.2854385E0,-6.3259244E0,1.4820574E1,5.606852E0,4.1992077E1,4.437641E1,1.7369867E1,1.4558848E1,6.2626217E1,7.583846E1,3.0112669E1,1.8813972E1,3.2914276E0,9.667988E1,5.3497616E1,-2.3953614E0,4.1844316E0,1.9321915E1,9.206758E0,2.2323807E1,1.0168713E2,-3.2764528E0,-1.8043354E0,-5.8425417E0,-1.0506727E0,7.2899675E-1,-1.032894E0,-2.4598536E0,-1.6922323E0,-2.006418E0,3.978464E-1,-5.284976E0,-1.9283164E0,1.4077203E0,5.3166504E0,1.739358E0,-7.520737E-1,2.0441577E0,5.064402E0,1.1085142E1,4.9433613E0,1.2029322E1,2.9848632E-1,1.4651855E0,-3.5809785E-1,-2.8378484E0,2.186114E-1,6.0654216E0,-4.0700248E-1,2.3185563E0,-1.0417453E-1,3.077022E0,7.242712E0,2.9547243E0,7.3785386E0,1.165319E0,4.4389887E0,2.501153E0,1.4906617E-1,4.3201585E0,9.928333E0,9.091234E0,1.4480491E1,1.1821377E0,1.1268475E1,3.3784814E0,1.5309353E1,2.4961474E0,9.236906E0,1.5579195E1,2.2079437E0],"categories":[],"categories_nodes":[],"categories_segments":[],"categories_sizes":[],"default_left":[0,0,0,0,0,0,0,0,0,0,0,0,0,0,0,0,0,0,0,0,0,0,0,0,0,0,0,0,0,0,0,0,0,0,0,0,0,0,0,0,0,0,0,0,0,0,0,0,0,0,0,0,0,0,0,0,0,0,0,0,0,0,0,0,0,0,0,0,0,0,0,0,0,0,0,0,0,0,0,0,0,0,0,0,0,0,0,0,0,0,0,0,0,0,0,0,0,0,0,0,0,0,0,0,0,0,0,0,0,0,0,0,0],"id":16,"left_children":[1,3,5,7,9,11,13,15,17,19,21,23,25,27,29,31,33,35,37,39,41,43,45,47,49,51,53,55,57,59,61,63,65,67,69,71,73,75,77,79,81,83,85,87,89,91,93,95,97,99,101,103,105,-1,-1,107,109,-1,-1,-1,-1,-1,111,-1,-1,-1,-1,-1,-1,-1,-1,-1,-1,-1,-1,-1,-1,-1,-1,-1,-1,-1,-1,-1,-1,-1,-1,-1,-1,-1,-1,-1,-1,-1,-1,-1,-1,-1,-1,-1,-1,-1,-1,-1,-1,-1,-1,-1,-1,-1,-1,-1,-1],"loss_changes":[3.052392E6,5.301813E5,2.3801975E5,7.3246625E4,6.851767E4,3.503625E4,7.354675E4,2.8396312E4,5.944435E4,3.5767656E4,1.1916036E5,2.0060812E4,4.5637E4,2.5884438E4,4.033625E4,3.8890453E4,1.8334625E4,7.5036984E4,5.9961914E3,2.5148688E4,7.273617E3,2.5267682E4,1.4102844E4,1.1532633E4,5.5728125E3,3.6497344E4,2.3140625E2,5.4936875E3,3.8505444E3,5.2815562E4,3.53825E3,7.532461E3,1.651886E4,3.403285E3,1.0494781E4,3.093584E4,2.9815469E4,1.0267785E4,1.8450277E3,2.5119117E4,8.247672E3,4.9901953E3,1.9159024E2,2.722305E4,3.21462E4,9.6727454E2,9.573797E3,5.0022266E3,2.9062031E3,1.2137256E2,5.4920312E3,9.2619375E3,2.9753441E4,0E0,0E0,3.6599375E3,3.2338945E3,0E0,0E0,0E0,0E0,0E0,1.9290312E3,0E0,0E0,0E0,0E0,0E0,0E0,0E0,0E0,0E0,0E0,0E0,0E0,0E0,0E0,0E0,0E0,0E0,0E0,0E0,0E0,0E0,0E0,0E0,0E0,0E0,0E0,0E0,0E0,0E0,0E0,0E0,0E0,0E0,0E0,0E0,0E0,0E0,0E0,0E0,0E0,0E0,0E0,0E0,0E0,0E0,0E0,0E0,0E0,0E0,0E0],"parents":[2147483647,0,0,1,1,2,2,3,3,4,4,5,5,6,6,7,7,8,8,9,9,10,10,11,11,12,12,13,13,14,14,15,15,16,16,17,17,18,18,19,19,20,20,21,21,22,22,23,23,24,24,25,25,26,26,27,27,28,28,29,29,30,30,31,31,32,32,33,33,34,34,35,35,36,36,37,37,38,38,39,39,40,40,41,41,42,42,43,43,44,44,45,45,46,46,47,47,48,48,49,49,50,50,51,51,52,52,55,55,56,56,62,62],"right_children":[2,4,6,8,10,12,14,16,18,20,22,24,26,28,30,32,34,36,38,40,42,44,46,48,50,52,54,56,58,60,62,64,66,68,70,72,74,76,78,80,82,84,86,88,90,92,94,96,98,100,102,104,106,-1,-1,108,110,-1,-1,-1,-1,-1,112,-1,-1,-1,-1,-1,-1,-1,-1,-1,-1,-1,-1,-1,-1,-1,-1,-1,-1,-1,-1,-1,-1,-1,-1,-1,-1,-1,-1,-1,-1,-1,-1,-1,-1,-1,-1,-1,-1,-1,-1,-1,-1,-1,-1,-1,-1,-1,-1,-1,-1],"split_conditions":[6.839204E2,2.9558344E2,1.1900082E3,7.5789696E1,4.0996234E4,9.487681E2,4.143071E4,3.7929424E1,5.0947184E4,4.1125263E1,4.9069094E4,1.8955683E1,4.880753E4,7.56051E0,1.3228638E3,3.8873027E4,3.5976566E4,4.0065855E4,1.03471985E2,1.8654276E1,3.668123E4,3.292687E1,1.8654276E1,2.806E3,3.791274E4,4.3866703E4,2.1226002E1,2.5455172E0,8.736701E0,1.0667654E1,1.1246956E1,1.5081608E1,5.1216367E4,5.461E1,6.699544E1,1.6894096E0,1.1826545E1,5.2339934E4,5.2488617E4,4.94284E2,3.4038383E4,3.085E3,4.94284E2,3.91668E2,5.387862E0,5.101325E4,3.635375E2,2.344E3,1.3856667E0,7.968488E2,2.344E3,5.9632134E0,3.9449886E1,1.8813972E1,3.2914276E0,2.23E3,3.4822223E0,-2.3953614E0,4.1844316E0,1.9321915E1,9.206758E0,2.2323807E1,6.024096E-3,-3.2764528E0,-1.8043354E0,-5.8425417E0,-1.0506727E0,7.2899675E-1,-1.032894E0,-2.4598536E0,-1.6922323E0,-2.006418E0,3.978464E-1,-5.284976E0,-1.9283164E0,1.4077203E0,5.3166504E0,1.739358E0,-7.520737E-1,2.0441577E0,5.064402E0,1.1085142E1,4.9433613E0,1.2029322E1,2.9848632E-1,1.4651855E0,-3.5809785E-1,-2.8378484E0,2.186114E-1,6.0654216E0,-4.0700248E-1,2.3185563E0,-1.0417453E-1,3.077022E0,7.242712E0,2.9547243E0,7.3785386E0,1.165319E0,4.4389887E0,2.501153E0,1.4906617E-1,4.3201585E0,9.928333E0,9.091234E0,1.4480491E1,1.1821377E0,1.1268475E1,3.3784814E0,1.5309353E1,2.4961474E0,9.236906E0,1.5579195E1,2.2079437E0],"split_indices":[0,0,0,0,2,0,2,9,2,3,2,9,2,9,0,2,2,2,9,9,2,9,9,1,2,2,4,4,9,9,4,9,2,0,9,9,9,2,2,0,2,1,0,0,8,2,0,1,8,0,1,9,9,0,0,1,4,0,0,0,0,0,3,0,0,0,0,0,0,0,0,0,0,0,0,0,0,0,0,0,0,0,0,0,0,0,0,0,0,0,0,0,0,0,0,0,0,0,0,0,0,0,0,0,0,0,0,0,0,0,0,0,0],"split_type":[0,0,0,0,0,0,0,0,0,0,0,0,0,0,0,0,0,0,0,0,0,0,0,0,0,0,0,0,0,0,0,0,0,0,0,0,0,0,0,0,0,0,0,0,0,0,0,0,0,0,0,0,0,0,0,0,0,0,0,0,0,0,0,0,0,0,0,0,0,0,0,0,0,0,0,0,0,0,0,0,0,0,0,0,0,0,0,0,0,0,0,0,0,0,0,0,0,0,0,0,0,0,0,0,0,0,0,0,0,0,0,0,0],"sum_hessian":[5.809E3,5.35E3,4.59E2,4.432E3,9.18E2,2.75E2,1.84E2,3.094E3,1.338E3,4.77E2,4.41E2,1.64E2,1.11E2,4.7E1,1.37E2,5.46E2,2.548E3,1.244E3,9.4E1,4.61E2,1.6E1,3.44E2,9.7E1,8.4E1,8E1,9.4E1,1.7E1,3.5E1,1.2E1,5.9E1,7.8E1,4.1E2,1.36E2,1.07E2,2.441E3,7.9E2,4.54E2,6.5E1,2.9E1,3.63E2,9.8E1,1.4E1,2E0,2.75E2,6.9E1,1.3E1,8.4E1,5.7E1,2.7E1,4E0,7.6E1,6.5E1,2.9E1,1.6E1,1E0,1.9E1,1.6E1,1E0,1.1E1,2.4E1,3.5E1,5.3E1,2.5E1,1.13E2,2.97E2,1.16E2,2E1,7.2E1,3.5E1,5.25E2,1.916E3,1.46E2,6.44E2,7E1,3.84E2,2.8E1,3.7E1,2.1E1,8E0,2.83E2,8E1,5E0,9.3E1,1.3E1,1E0,1E0,1E0,1.04E2,1.71E2,2.7E1,4.2E1,4E0,9E0,2.1E1,6.3E1,1.1E1,4.6E1,1.7E1,1E1,3E0,1E0,9E0,6.7E1,4.2E1,2.3E1,2.1E1,8E0,2E0,1.7E1,4E0,1.2E1,2.4E1,1E0],"tree_param":{"num_deleted":"0","num_feature":"11","num_nodes":"113","size_leaf_vector":"1"}},{"base_weights":[5.141199E-1,-6.015641E0,5.585752E1,-1.0518069E1,8.020011E0,3.8751274E1,8.508343E1,-5.629956E0,-1.1548122E1,1.4672126E1,7.5899756E-1,3.4020588E1,5.7762676E1,7.365165E1,1.1544211E2,-6.9035378E0,1.2066219E1,-2.0022036E1,-9.759328E0,8.780643E0,2.2033442E1,-6.105347E0,2.0688679E1,5.7964687E1,2.716328E1,2.2116571E1,7.803625E1,6.674146E1,1.8622374E1,9.3538E0,1.2388205E2,-1.1633553E1,-2.2294955E0,5.664892E0,1.8209787E1,-1.5627482E1,-2.8325245E1,-1.1281393E1,-3.725577E0,1.9474886E1,3.5134712E-1,1.503996E1,3.0391233E1,-1.1045099E1,4.5328174E0,1.2819658E1,4.0113472E1,1.9693008E1,7.386717E1,1.4721251E1,3.9071697E1,3.7649796E1,-1.1468051E1,5.7794914E0,8.53388E1,7.954555E1,5.237739E1,2.2192139E1,1.1820416E1,1.1560284E0,-1.9570208E0,-2.4619796E0,-3.086522E-3,2.488662E0,-1.4686339E-1,4.2494392E0,1.1378528E0,-3.635538E0,-1.8586884E0,-6.4807043E0,-3.4195216E0,-1.5340718E0,-2.2915096E0,-1.3679612E0,3.2524428E0,1.097906E0,1.0312171E1,-2.7079225E-1,3.3240442E0,1.4759284E0,4.232569E0,1.0461036E1,4.106796E0,-1.9165221E0,3.6973295E0,1.7533163E0,-7.704727E-1,1.2740748E0,6.3650384E0,6.6032543E0,2.253167E0,3.5646303E0,-1.6915879E0,7.521011E0,1.4006141E1,3.1501768E0,7.436199E-1,6.563668E0,3.0275555E0,2.2144597E0,8.965889E0,4.3842454E0,-4.067696E0,4.7036977E0,1.3738039E1,5.9604306E0,1.2642925E1,6.4420576E0,1.5287592E1],"categories":[],"categories_nodes":[],"categories_segments":[],"categories_sizes":[],"default_left":[0,0,0,0,0,0,0,0,0,0,0,0,0,0,0,0,0,0,0,0,0,0,0,0,0,0,0,0,0,0,0,0,0,0,0,0,0,0,0,0,0,0,0,0,0,0,0,0,0,0,0,0,0,0,0,0,0,0,0,0,0,0,0,0,0,0,0,0,0,0,0,0,0,0,0,0,0,0,0,0,0,0,0,0,0,0,0,0,0,0,0,0,0,0,0,0,0,0,0,0,0,0,0,0,0,0,0,0,0],"id":17,"left_children":[1,3,5,7,9,11,13,15,17,19,21,23,25,27,29,31,33,35,37,39,41,43,45,47,49,51,53,55,-1,-1,57,59,61,63,65,67,69,71,73,75,77,79,81,83,85,87,89,91,93,95,97,99,101,-1,103,105,107,-1,-1,-1,-1,-1,-1,-1,-1,-1,-1,-1,-1,-1,-1,-1,-1,-1,-1,-1,-1,-1,-1,-1,-1,-1,-1,-1,-1,-1,-1,-1,-1,-1,-1,-1,-1,-1,-1,-1,-1,-1,-1,-1,-1,-1,-1,-1,-1,-1,-1,-1,-1],"loss_changes":[2.1025032E6,3.2903544E5,3.002485E5,1.9695812E4,6.106317E4,3.1143312E4,6.0893E4,1.571233E4,4.8888688E4,2.8205844E4,8.330735E4,4.8978938E4,5.064861E4,4.2209375E4,1.03486875E4,1.4194107E4,1.6181807E3,1.9686953E4,2.4605281E4,3.3320117E4,1.6107828E4,2.3911748E4,2.276382E4,3.8991516E4,3.5985234E4,1.6540047E4,6.85925E3,1.9674812E4,0E0,0E0,2.8529062E4,8.952957E3,1.0228012E4,1.9355284E3,2.0071055E3,9.783148E3,1.3840344E4,8.705344E3,7.507939E4,9.6544375E4,9.930431E3,1.05765625E4,1.1613164E4,1.977964E4,1.0159633E4,1.3832164E4,2.933375E3,3.4484512E3,1.2709547E4,7.4916113E3,9.410547E3,8.793297E3,8.588957E3,0E0,6.9496875E3,7.7090625E3,2.7540938E4,0E0,0E0,0E0,0E0,0E0,0E0,0E0,0E0,0E0,0E0,0E0,0E0,0E0,0E0,0E0,0E0,0E0,0E0,0E0,0E0,0E0,0E0,0E0,0E0,0E0,0E0,0E0,0E0,0E0,0E0,0E0,0E0,0E0,0E0,0E0,0E0,0E0,0E0,0E0,0E0,0E0,0E0,0E0,0E0,0E0,0E0,0E0,0E0,0E0,0E0,0E0,0E0],"parents":[2147483647,0,0,1,1,2,2,3,3,4,4,5,5,6,6,7,7,8,8,9,9,10,10,11,11,12,12,13,13,14,14,15,15,16,16,17,17,18,18,19,19,20,20,21,21,22,22,23,23,24,24,25,25,26,26,27,27,30,30,31,31,32,32,33,33,34,34,35,35,36,36,37,37,38,38,39,39,40,40,41,41,42,42,43,43,44,44,45,45,46,46,47,47,48,48,49,49,50,50,51,51,52,52,54,54,55,55,56,56],"right_children":[2,4,6,8,10,12,14,16,18,20,22,24,26,28,30,32,34,36,38,40,42,44,46,48,50,52,54,56,-1,-1,58,60,62,64,66,68,70,72,74,76,78,80,82,84,86,88,90,92,94,96,98,100,102,-1,104,106,108,-1,-1,-1,-1,-1,-1,-1,-1,-1,-1,-1,-1,-1,-1,-1,-1,-1,-1,-1,-1,-1,-1,-1,-1,-1,-1,-1,-1,-1,-1,-1,-1,-1,-1,-1,-1,-1,-1,-1,-1,-1,-1,-1,-1,-1,-1,-1,-1,-1,-1,-1,-1],"split_conditions":[5.191125E2,1.861185E2,1.0451318E3,3.5555887E4,4.020269E4,4.9320934E4,1.4718982E3,4.4449825E1,3.922072E1,3.372612E2,4.4927902E1,3.6771824E4,3.7929424E1,4.880753E4,4.143071E4,7.804727E1,4.9793438E1,4.1766855E4,1.5875E0,3.426111E4,-4.8233333E0,3.91668E2,4.05384E2,-9.897647E0,7.607495E2,5.143978E4,5.944235E2,1.1430332E1,1.8622374E1,9.3538E0,4.6690574E4,1.8952308E0,1.6894096E0,3.755292E0,3.4613805E4,1.5081608E1,8.652933E0,5.207262E4,5.1996195E4,8.266307E0,2.5886204E1,1.2085185E0,3.3763574E4,5.0947184E4,2.806E3,5.252668E4,5.2570848E4,4.563415E0,3.5555887E4,4.408616E4,4.6403145E4,7.4039044E2,5.944235E2,5.7794914E0,2.344E3,-1.3383472E1,4.3970848E1,2.2192139E1,1.1820416E1,1.1560284E0,-1.9570208E0,-2.4619796E0,-3.086522E-3,2.488662E0,-1.4686339E-1,4.2494392E0,1.1378528E0,-3.635538E0,-1.8586884E0,-6.4807043E0,-3.4195216E0,-1.5340718E0,-2.2915096E0,-1.3679612E0,3.2524428E0,1.097906E0,1.0312171E1,-2.7079225E-1,3.3240442E0,1.4759284E0,4.232569E0,1.0461036E1,4.106796E0,-1.9165221E0,3.6973295E0,1.7533163E0,-7.704727E-1,1.2740748E0,6.3650384E0,6.6032543E0,2.253167E0,3.5646303E0,-1.6915879E0,7.521011E0,1.4006141E1,3.1501768E0,7.436199E-1,6.563668E0,3.0275555E0,2.2144597E0,8.965889E0,4.3842454E0,-4.067696E0,4.7036977E0,1.3738039E1,5.9604306E0,1.2642925E1,6.4420576E0,1.5287592E1],"split_indices":[0,0,0,2,2,2,0,9,9,0,9,2,9,2,2,0,9,2,0,2,5,0,0,5,0,2,0,9,0,0,2,0,9,8,2,9,0,2,2,9,9,3,2,2,1,2,2,9,2,2,2,0,0,0,1,5,9,0,0,0,0,0,0,0,0,0,0,0,0,0,0,0,0,0,0,0,0,0,0,0,0,0,0,0,0,0,0,0,0,0,0,0,0,0,0,0,0,0,0,0,0,0,0,0,0,0,0,0,0],"split_type":[0,0,0,0,0,0,0,0,0,0,0,0,0,0,0,0,0,0,0,0,0,0,0,0,0,0,0,0,0,0,0,0,0,0,0,0,0,0,0,0,0,0,0,0,0,0,0,0,0,0,0,0,0,0,0,0,0,0,0,0,0,0,0,0,0,0,0,0,0,0,0,0,0,0,0,0,0,0,0,0,0,0,0,0,0,0,0,0,0,0,0,0,0,0,0,0,0,0,0,0,0,0,0,0,0,0,0,0,0],"sum_hessian":[5.814E3,5.202E3,6.12E2,3.939E3,1.263E3,3.89E2,2.23E2,6.88E2,3.251E3,6.58E2,6.05E2,3.16E2,7.3E1,1.67E2,5.6E1,6.43E2,4.5E1,5.63E2,2.688E3,3.68E2,2.9E2,4.51E2,1.54E2,6.7E1,2.49E2,2.8E1,4.5E1,1.51E2,1.6E1,1E1,4.6E1,3.18E2,3.25E2,2.4E1,2.1E1,3.72E2,1.91E2,2.145E3,5.43E2,1.61E2,2.07E2,1.61E2,1.29E2,3.08E2,1.43E2,1.12E2,4.2E1,2.1E1,4.6E1,1.24E2,1.25E2,1.9E1,9E0,9E0,3.6E1,7.5E1,7.6E1,2.7E1,1.9E1,2.1E1,2.97E2,4.2E1,2.83E2,8E0,1.6E1,9E0,1.2E1,9.8E1,2.74E2,4.8E1,1.43E2,1.703E3,4.42E2,4.49E2,9.4E1,1.31E2,3E1,1.9E2,1.7E1,1.18E2,4.3E1,6E0,1.23E2,2.95E2,1.3E1,8.2E1,6.1E1,1E2,1.2E1,3.5E1,7E0,1.9E1,2E0,2.4E1,2.2E1,7.4E1,5E1,9.8E1,2.7E1,1.1E1,8E0,2E0,7E0,5E0,3.1E1,1E1,6.5E1,6.7E1,9E0],"tree_param":{"num_deleted":"0","num_feature":"11","num_nodes":"109","size_leaf_vector":"1"}},{"base_weights":[6.463019E-1,-4.199446E0,6.116664E1,-8.332691E0,1.0290497E1,4.5864655E1,8.415947E1,-2.3660653E0,-9.811471E0,2.052064E1,5.9951806E0,4.0494553E1,6.929841E1,5.2517525E1,9.378881E1,-4.955816E0,9.845515E0,-1.5366273E1,-7.977431E0,1.72216E1,4.929359E1,1.2320082E1,-8.072598E0,3.3892017E1,5.0016354E1,9.0049675E1,2.3246288E1,1.8268787E1,5.9085648E1,1.09499054E2,7.1953316E1,-1.0730969E0,-7.8524394E0,3.3838375E1,5.7152705E0,-1.178799E1,-2.1602919E1,-9.072505E0,1.6866422E-1,1.0848924E1,2.8581781E1,1.2690798E1,6.4970634E1,8.393324E0,2.8249989E1,-1.1663214E1,1.940348E1,3.695189E1,4.419458E0,1.5569106E1,4.251595E1,9.223212E1,1.1788148E0,3.3254917E1,-4.103045E-1,-1.3564453E-1,3.950702E0,6.2806225E1,1.9380676E1,9.103775E1,1.9817972E1,5.7919064E1,1.8385805E1,-1.9575808E0,2.926863E-1,-1.6060377E0,2.3625864E-1,7.346055E0,1.6625658E0,3.2197464E-1,5.1213446E0,2.0754962E-1,-1.9526806E0,-2.0580676E0,-4.5707483E0,-1.1693108E0,-1.6751821E0,-8.854708E-1,1.8388071E0,2.117346E0,-3.1584647E0,7.3080077E0,3.01753E0,-6.442261E-2,2.809288E0,2.342675E0,1.0984411E1,2.1604264E0,-1.9836083E-1,2.5190246E0,5.751533E0,8.3630085E-1,-2.6168995E0,4.2477994E0,-2.7958125E-1,7.1837215E0,3.720627E0,2.3289726E0,-1.8851349E0,1.9362994E0,7.0464883E0,3.0079744E0,1.4387952E1,6.2192903E0,-5.460114E-1,8.5871524E-1,-1.218599E0,-4.9919132E-2,-0E0,1.0397317E1,3.8737051E0,-2.9077392E0,5.2631655E0,1.4953642E1,7.5814495E0,5.65365E0,1.1497533E1],"categories":[],"categories_nodes":[],"categories_segments":[],"categories_sizes":[],"default_left":[0,0,0,0,0,0,0,0,0,0,0,0,0,0,0,0,0,0,0,0,0,0,0,0,0,0,0,0,0,0,0,0,0,0,0,0,0,0,0,0,0,0,0,0,0,0,0,0,0,0,0,0,0,0,0,0,0,0,0,0,0,0,0,0,0,0,0,0,0,0,0,0,0,0,0,0,0,0,0,0,0,0,0,0,0,0,0,0,0,0,0,0,0,0,0,0,0,0,0,0,0,0,0,0,0,0,0,0,0,0,0,0,0,0,0,0,0],"id":18,"left_children":[1,3,5,7,9,11,13,15,17,19,21,23,25,27,29,31,33,35,37,39,41,43,45,47,49,51,53,55,57,59,61,63,65,67,69,71,73,75,77,79,81,83,85,87,89,91,93,95,97,-1,99,101,-1,103,105,107,-1,109,111,113,-1,115,-1,-1,-1,-1,-1,-1,-1,-1,-1,-1,-1,-1,-1,-1,-1,-1,-1,-1,-1,-1,-1,-1,-1,-1,-1,-1,-1,-1,-1,-1,-1,-1,-1,-1,-1,-1,-1,-1,-1,-1,-1,-1,-1,-1,-1,-1,-1,-1,-1,-1,-1,-1,-1,-1,-1],"loss_changes":[1.6971166E6,3.2106275E5,1.4308775E5,3.6734688E4,5.201804E4,2.7248312E4,4.1495375E4,2.6373025E4,3.3768688E4,3.1553672E4,7.503308E4,1.0230969E4,3.96595E4,7.6615938E3,2.7627125E4,7.700758E3,1.4041725E4,1.7913047E4,2.2456125E4,2.2361938E4,1.8357102E4,3.583236E4,2.6292752E4,1.1806625E4,2.5313031E4,4.0109375E3,4.0852266E3,1.5184426E3,2.8014766E3,4.9536875E3,2.7534312E4,1.0784287E4,1.0618717E4,6.0866797E3,1.2701237E4,8.633422E3,2.0022E4,5.742297E3,2.2173604E4,2.2162236E4,1.7233953E4,1.0642136E3,7.406039E3,2.7434602E4,1.1839609E4,2.3433426E4,6.0096924E3,1.3764172E4,3.2233486E3,0E0,9.0285625E3,4.0219531E3,0E0,3.9732422E3,4.2668344E2,3.5101068E-1,0E0,4.0278281E3,5.02942E3,5.54075E3,0E0,1.3052359E4,0E0,0E0,0E0,0E0,0E0,0E0,0E0,0E0,0E0,0E0,0E0,0E0,0E0,0E0,0E0,0E0,0E0,0E0,0E0,0E0,0E0,0E0,0E0,0E0,0E0,0E0,0E0,0E0,0E0,0E0,0E0,0E0,0E0,0E0,0E0,0E0,0E0,0E0,0E0,0E0,0E0,0E0,0E0,0E0,0E0,0E0,0E0,0E0,0E0,0E0,0E0,0E0,0E0,0E0,0E0],"parents":[2147483647,0,0,1,1,2,2,3,3,4,4,5,5,6,6,7,7,8,8,9,9,10,10,11,11,12,12,13,13,14,14,15,15,16,16,17,17,18,18,19,19,20,20,21,21,22,22,23,23,24,24,25,25,26,26,27,27,28,28,29,29,30,30,31,31,32,32,33,33,34,34,35,35,36,36,37,37,38,38,39,39,40,40,41,41,42,42,43,43,44,44,45,45,46,46,47,47,48,48,50,50,